{"learner":{"attributes":{"scikit_learn":"{\"_estimator_type\": \"classifier\"}"},"feature_names":[],"feature_types":[],"gradient_booster":{"model":{"gbtree_model_param":{"num_parallel_tree":"1","num_trees":"400"},"iteration_indptr":[0,1,2,3,4,5,6,7,8,9,10,11,12,13,14,15,16,17,18,19,20,21,22,23,24,25,26,27,28,29,30,31,32,33,34,35,36,37,38,39,40,41,42,43,44,45,46,47,48,49,50,51,52,53,54,55,56,57,58,59,60,61,62,63,64,65,66,67,68,69,70,71,72,73,74,75,76,77,78,79,80,81,82,83,84,85,86,87,88,89,90,91,92,93,94,95,96,97,98,99,100,101,102,103,104,105,106,107,108,109,110,111,112,113,114,115,116,117,118,119,120,121,122,123,124,125,126,127,128,129,130,131,132,133,134,135,136,137,138,139,140,141,142,143,144,145,146,147,148,149,150,151,152,153,154,155,156,157,158,159,160,161,162,163,164,165,166,167,168,169,170,171,172,173,174,175,176,177,178,179,180,181,182,183,184,185,186,187,188,189,190,191,192,193,194,195,196,197,198,199,200,201,202,203,204,205,206,207,208,209,210,211,212,213,214,215,216,217,218,219,220,221,222,223,224,225,226,227,228,229,230,231,232,233,234,235,236,237,238,239,240,241,242,243,244,245,246,247,248,249,250,251,252,253,254,255,256,257,258,259,260,261,262,263,264,265,266,267,268,269,270,271,272,273,274,275,276,277,278,279,280,281,282,283,284,285,286,287,288,289,290,291,292,293,294,295,296,297,298,299,300,301,302,303,304,305,306,307,308,309,310,311,312,313,314,315,316,317,318,319,320,321,322,323,324,325,326,327,328,329,330,331,332,333,334,335,336,337,338,339,340,341,342,343,344,345,346,347,348,349,350,351,352,353,354,355,356,357,358,359,360,361,362,363,364,365,366,367,368,369,370,371,372,373,374,375,376,377,378,379,380,381,382,383,384,385,386,387,388,389,390,391,392,393,394,395,396,397,398,399,400],"tree_info":[0,0,0,0,0,0,0,0,0,0,0,0,0,0,0,0,0,0,0,0,0,0,0,0,0,0,0,0,0,0,0,0,0,0,0,0,0,0,0,0,0,0,0,0,0,0,0,0,0,0,0,0,0,0,0,0,0,0,0,0,0,0,0,0,0,0,0,0,0,0,0,0,0,0,0,0,0,0,0,0,0,0,0,0,0,0,0,0,0,0,0,0,0,0,0,0,0,0,0,0,0,0,0,0,0,0,0,0,0,0,0,0,0,0,0,0,0,0,0,0,0,0,0,0,0,0,0,0,0,0,0,0,0,0,0,0,0,0,0,0,0,0,0,0,0,0,0,0,0,0,0,0,0,0,0,0,0,0,0,0,0,0,0,0,0,0,0,0,0,0,0,0,0,0,0,0,0,0,0,0,0,0,0,0,0,0,0,0,0,0,0,0,0,0,0,0,0,0,0,0,0,0,0,0,0,0,0,0,0,0,0,0,0,0,0,0,0,0,0,0,0,0,0,0,0,0,0,0,0,0,0,0,0,0,0,0,0,0,0,0,0,0,0,0,0,0,0,0,0,0,0,0,0,0,0,0,0,0,0,0,0,0,0,0,0,0,0,0,0,0,0,0,0,0,0,0,0,0,0,0,0,0,0,0,0,0,0,0,0,0,0,0,0,0,0,0,0,0,0,0,0,0,0,0,0,0,0,0,0,0,0,0,0,0,0,0,0,0,0,0,0,0,0,0,0,0,0,0,0,0,0,0,0,0,0,0,0,0,0,0,0,0,0,0,0,0,0,0,0,0,0,0,0,0,0,0,0,0,0,0,0,0,0,0,0,0,0,0,0,0,0,0,0,0,0,0,0,0,0,0,0,0,0,0,0,0,0,0,0,0,0,0,0,0,0,0,0,0,0,0],"trees":[{"base_weights":[2.5092234E-7,-1.3605591E0,1.0130483E0,-1.6340646E0,1.1997688E0,1.4613998E0,-1.6711204E-1,-5.284071E-1,-1.796876E0,1.4526951E-1,1.849275E0,1.6439131E0,-1.0995747E0,7.967662E-1,-1.1480652E0,8.808888E-1,-1.4662502E0,1.3778389E-1,-1.918009E0,8.211448E-1,-8.867009E-1,3.8276874E-2,1.0739701E-2,1.2305224E0,1.8976641E0,-1.6700394E0,1.3733852E0,-2.7941903E-1,1.1349236E0,-1.3303021E0,8.6336714E-1,-5.116864E-1,1.5026892E0,-1.6350307E0,2.4000819E-1,-1.4404374E0,1.0198276E0,-1.9316335E0,1.0739701E-2,-2.4160642E-2,1.2260813E0,1.52004715E-2,-3.3264983E-2,1.5956262E0,1.8697134E-1,3.823086E-2,6.563192E-1,-3.4542967E-2,-1.1079098E-2,4.2964052E-3,3.216624E-2,6.549753E-1,-7.66589E-1,8.0018157E-1,3.4089003E-2,2.7508542E-2,-1.4238868E0,-9.415671E-3,2.934601E-2,-1.0882459E0,2.384064E-2,-4.592703E-3,3.3194825E-2,-1.278473E-1,-1.8024163E0,-1.1079098E-2,2.2074623E-2,4.2964052E-3,-3.4899116E-2,3.3334634E-1,1.4476252E0,-3.9942626E-2,-1.4714527E0,1.4476252E0,-4.592703E-3,1.7547204E0,2.3322625E-1,-1.1556953E0,3.4165796E-2,-4.592703E-3,2.1354506E-2,2.778766E-2,-3.631494E-1,-1.1323128E0,6.569105E-1,1.5735536E0,8.821949E-2,-8.5662705E-1,-1.4952211E0,-2.6874999E-2,-6.844644E-3,3.466768E-3,-8.160214E-3,-1.6675072E-2,-3.7881482E-2,2.201558E-2,-1.3529327E-2,3.1770118E-2,1.0739701E-2,1.4327797E-2,-3.428501E-2,6.489084E-3,3.425419E-2,1.689594E-2,3.731343E-2,-7.0701977E-3,2.778766E-2,2.6489677E-2,-2.8700473E-2,6.489084E-3,-2.237092E-2,-3.1955242E-2,-8.224303E-3,2.384064E-2,-4.592703E-3,9.046435E-3,3.3594582E-2,-1.584246E-2,2.5213143E-2,-2.8808748E-2,1.6952923E-2,-1.4514835E-2,-3.1129966E-2],"categories":[],"categories_nodes":[],"categories_segments":[],"categories_sizes":[],"default_left":[0,0,0,0,0,0,0,0,0,0,0,0,0,0,0,0,0,0,0,0,0,0,0,0,0,0,0,0,0,0,0,0,0,0,0,0,0,0,0,0,0,0,0,0,0,0,0,0,0,0,0,0,0,0,0,0,0,0,0,0,0,0,0,0,0,0,0,0,0,0,0,0,0,0,0,0,0,0,0,0,0,0,0,0,0,0,0,0,0,0,0,0,0,0,0,0,0,0,0,0,0,0,0,0,0,0,0,0,0,0,0,0,0,0,0,0,0,0,0,0,0,0,0],"id":0,"left_children":[1,3,5,7,9,11,13,15,17,19,21,23,25,27,29,31,33,35,37,39,41,-1,-1,43,45,47,49,51,53,55,57,59,61,63,65,67,69,71,-1,-1,73,-1,-1,75,77,-1,79,-1,-1,-1,-1,81,83,85,-1,-1,87,-1,-1,89,-1,-1,-1,91,93,-1,-1,-1,-1,95,97,-1,99,101,-1,103,105,107,-1,-1,-1,-1,109,111,113,115,117,119,121,-1,-1,-1,-1,-1,-1,-1,-1,-1,-1,-1,-1,-1,-1,-1,-1,-1,-1,-1,-1,-1,-1,-1,-1,-1,-1,-1,-1,-1,-1,-1,-1,-1,-1],"loss_changes":[1.5532886E3,3.387724E2,3.4204492E2,7.7352905E1,3.192044E1,2.2066351E2,1.6991888E2,7.695553E1,8.9020996E1,1.3979735E1,1.4294434E0,4.3555786E1,4.708256E1,3.3341404E1,3.37707E1,2.1116781E1,1.0399414E1,3.3833023E1,1.2960815E1,1.1340999E1,1.1493801E1,0E0,0E0,6.418384E1,3.3840942E0,7.1629333E-1,1.4235916E0,1.0743861E1,1.1837685E1,2.2721146E1,7.1364355E0,9.155277E0,4.870018E0,7.779129E0,3.3543823E0,4.7851734E0,4.069214E0,7.75354E0,0E0,0E0,3.7185926E0,0E0,0E0,2.6737488E1,9.388833E1,0E0,1.8853226E0,0E0,0E0,0E0,0E0,6.672991E0,8.682763E0,2.491292E1,0E0,0E0,1.946106E0,0E0,0E0,7.790413E-1,0E0,0E0,0E0,4.293319E-1,9.5108795E-1,0E0,0E0,0E0,0E0,6.362908E0,3.3364487E-1,0E0,2.6724709E1,2.1982422E0,0E0,9.730591E0,1.0157375E1,1.8873158E1,0E0,0E0,0E0,0E0,2.5703492E0,3.5382347E0,2.0527105E0,1.8293877E0,2.6543139E1,1.2413967E1,2.1472778E0,0E0,0E0,0E0,0E0,0E0,0E0,0E0,0E0,0E0,0E0,0E0,0E0,0E0,0E0,0E0,0E0,0E0,0E0,0E0,0E0,0E0,0E0,0E0,0E0,0E0,0E0,0E0,0E0,0E0,0E0,0E0,0E0,0E0,0E0],"parents":[2147483647,0,0,1,1,2,2,3,3,4,4,5,5,6,6,7,7,8,8,9,9,10,10,11,11,12,12,13,13,14,14,15,15,16,16,17,17,18,18,19,19,20,20,23,23,24,24,25,25,26,26,27,27,28,28,29,29,30,30,31,31,32,32,33,33,34,34,35,35,36,36,37,37,40,40,43,43,44,44,46,46,51,51,52,52,53,53,56,56,59,59,63,63,64,64,69,69,70,70,72,72,73,73,75,75,76,76,77,77,82,82,83,83,84,84,85,85,86,86,87,87,88,88],"right_children":[2,4,6,8,10,12,14,16,18,20,22,24,26,28,30,32,34,36,38,40,42,-1,-1,44,46,48,50,52,54,56,58,60,62,64,66,68,70,72,-1,-1,74,-1,-1,76,78,-1,80,-1,-1,-1,-1,82,84,86,-1,-1,88,-1,-1,90,-1,-1,-1,92,94,-1,-1,-1,-1,96,98,-1,100,102,-1,104,106,108,-1,-1,-1,-1,110,112,114,116,118,120,122,-1,-1,-1,-1,-1,-1,-1,-1,-1,-1,-1,-1,-1,-1,-1,-1,-1,-1,-1,-1,-1,-1,-1,-1,-1,-1,-1,-1,-1,-1,-1,-1,-1,-1],"split_conditions":[5.0327927E-1,1.06089E-2,-7.6491736E-2,8.9967155E-1,6.613407E-1,2.551649E-1,1.6182162E-1,-3.281093E-1,-1.750699E-1,2.3803021E-1,4.8964778E-1,-5.21808E-1,-3.281093E-1,-4.6265063E-1,8.4055924E-1,-1.750699E-1,4.400226E0,5.6186195E-2,1.5683131E0,4.99568E-2,1.06662445E-1,3.8276874E-2,1.0739701E-2,8.9967155E-1,2.4247488E-1,-6.1210267E-2,7.4946034E-1,7.061001E-1,8.4055924E-1,-4.2348057E-1,-5.21808E-1,-5.21808E-1,8.9352585E-2,-1.0146252E-1,8.6459166E-1,1.1222143E-1,3.102968E-1,-3.281093E-1,1.0739701E-2,-2.4160642E-2,2.144474E-1,1.52004715E-2,-3.3264983E-2,-3.281093E-1,-3.281093E-1,3.823086E-2,-3.298951E-1,-3.4542967E-2,-1.1079098E-2,4.2964052E-3,3.216624E-2,1.181596E0,8.081852E-1,9.299785E-1,3.4089003E-2,2.7508542E-2,1.7512582E-1,-9.415671E-3,2.934601E-2,-6.0754114E-1,2.384064E-2,-4.592703E-3,3.3194825E-2,-1.8196703E-1,-7.6491736E-2,-1.1079098E-2,2.2074623E-2,4.2964052E-3,-3.4899116E-2,-1.3587348E-2,4.3209377E-1,-3.9942626E-2,-2.652049E-1,-7.660921E-1,-4.592703E-3,-1.750699E-1,8.258363E-1,-1.750699E-1,3.4165796E-2,-4.592703E-3,2.1354506E-2,2.778766E-2,1.4402318E-1,7.4383485E-1,1.1428316E-1,2.0857517E-1,3.5719628E0,6.495619E-2,5.3728545E-1,-2.6874999E-2,-6.844644E-3,3.466768E-3,-8.160214E-3,-1.6675072E-2,-3.7881482E-2,2.201558E-2,-1.3529327E-2,3.1770118E-2,1.0739701E-2,1.4327797E-2,-3.428501E-2,6.489084E-3,3.425419E-2,1.689594E-2,3.731343E-2,-7.0701977E-3,2.778766E-2,2.6489677E-2,-2.8700473E-2,6.489084E-3,-2.237092E-2,-3.1955242E-2,-8.224303E-3,2.384064E-2,-4.592703E-3,9.046435E-3,3.3594582E-2,-1.584246E-2,2.5213143E-2,-2.8808748E-2,1.6952923E-2,-1.4514835E-2,-3.1129966E-2],"split_indices":[12,11,2,1,11,13,13,2,4,2,2,11,2,11,12,4,8,12,10,12,13,0,0,1,13,9,12,12,12,9,11,11,12,9,9,2,12,2,0,0,13,0,0,2,2,0,10,0,0,0,0,2,12,2,0,0,2,0,0,10,0,0,0,9,2,0,0,0,0,2,12,0,2,10,0,4,12,4,0,0,0,0,13,9,13,10,2,10,12,0,0,0,0,0,0,0,0,0,0,0,0,0,0,0,0,0,0,0,0,0,0,0,0,0,0,0,0,0,0,0,0,0,0],"split_type":[0,0,0,0,0,0,0,0,0,0,0,0,0,0,0,0,0,0,0,0,0,0,0,0,0,0,0,0,0,0,0,0,0,0,0,0,0,0,0,0,0,0,0,0,0,0,0,0,0,0,0,0,0,0,0,0,0,0,0,0,0,0,0,0,0,0,0,0,0,0,0,0,0,0,0,0,0,0,0,0,0,0,0,0,0,0,0,0,0,0,0,0,0,0,0,0,0,0,0,0,0,0,0,0,0,0,0,0,0,0,0,0,0,0,0,0,0,0,0,0,0,0,0],"sum_hessian":[1.12495E3,4.7997867E2,6.449713E2,4.339807E2,4.5997955E1,4.6722922E2,1.777421E2,5.6247498E1,3.7773322E2,1.7999199E1,2.7998755E1,4.364806E2,3.0748632E1,8.974601E1,8.7996086E1,2.2498999E1,3.37485E1,2.224901E1,3.554842E2,1.0999511E1,6.9996886E0,2.6248833E1,1.7499222E0,1.6824252E2,2.6823807E2,2.5248877E1,5.4997554E0,2.1499044E1,6.824696E1,8.09964E1,6.9996886E0,6.9996886E0,1.54993105E1,3.0748632E1,2.9998665E0,7.7496552E0,1.4499355E1,3.5373428E2,1.7499222E0,1.4999332E0,9.4995775E0,2.2498999E0,4.7497888E0,1.2424448E2,4.3998043E1,2.6473822E2,3.4998443E0,2.3498955E1,1.7499222E0,1.2499444E0,4.249811E0,7.2496777E0,1.4249367E1,4.449802E1,2.3748943E1,2.2498999E0,7.87465E1,2.2498999E0,4.7497888E0,5.4997554E0,1.4999332E0,1.2499444E0,1.4249367E1,3.2498555E0,2.7498777E1,1.7499222E0,1.2499444E0,1.2499444E0,6.499711E0,6.249722E0,8.249633E0,3.0673636E2,4.699791E1,8.249633E0,1.2499444E0,1.1099506E2,1.3249411E1,2.3498955E1,2.0499088E1,1.2499444E0,2.2498999E0,3.9998221E0,3.2498555E0,1.1499489E1,2.7498777E0,2.0749077E1,2.3748943E1,1.0249544E1,6.8496956E1,3.4998443E0,1.9999111E0,1.7499222E0,1.4999332E0,3.2498555E0,2.4248922E1,3.4998443E0,2.7498777E0,6.499711E0,1.7499222E0,4.4997997E0,4.249811E1,1.9999111E0,6.249722E0,1.2999422E1,9.799564E1,9.249589E0,3.9998221E0,1.9999111E0,2.1499044E1,1.9999111E0,1.2499444E0,6.249722E0,5.2497663E0,1.4999332E0,1.2499444E0,2.2498999E0,1.8499178E1,1.3749389E1,9.999556E0,7.7496552E0,2.499889E0,5.999733E0,6.249722E1],"tree_param":{"num_deleted":"0","num_feature":"14","num_nodes":"123","size_leaf_vector":"1"}},{"base_weights":[1.8596511E-4,-1.3335987E0,9.93555E-1,-1.6017337E0,1.1772047E0,1.4332466E0,-1.6342129E-1,-5.184445E-1,-1.761241E0,1.4207649E-1,1.81502E0,1.6122918E0,-1.0779918E0,7.8191346E-1,-1.1252815E0,8.6434555E-1,-1.4384247E0,1.359341E-1,-1.8800201E0,8.059475E-1,-8.712918E-1,3.7562087E-2,1.0603701E-2,1.2070756E0,1.8610629E0,-1.6384714E0,1.3519583E0,-2.7425584E-1,1.1138679E0,-1.3041137E0,8.4879154E-1,-5.0271106E-1,1.4750046E0,-1.6043187E0,2.3797339E-1,-1.4152082E0,1.0029838E0,-1.8934048E0,1.0603701E-2,-2.3870492E-2,1.2053899E0,1.4991672E-2,-3.271687E-2,1.5650946E0,1.8399353E-1,3.749247E-2,6.4699733E-1,-3.4436487E-2,-1.4887701E-2,4.2487485E-3,3.1657685E-2,6.434453E-1,-7.526531E-1,7.8553593E-1,3.345152E-2,2.7134717E-2,-1.3961728E0,-9.285036E-3,2.8871045E-2,-1.0716579E0,2.3558846E-2,-4.541611E-3,3.258971E-2,-1.263943E-1,-1.7684332E0,-1.0937789E-2,2.1832641E-2,4.2487485E-3,-3.429633E-2,3.2788822E-1,1.4237642E0,-3.9151542E-2,-1.4425422E0,1.4236007E0,-4.541611E-3,1.7210532E0,2.3003626E-1,-1.1327177E0,3.3531006E-2,-4.541611E-3,2.1062605E-2,2.7351405E-2,-3.5962972E-1,-1.1128863E0,6.48979E-1,1.5447267E0,8.684494E-2,-8.4059095E-1,-1.466013E0,-2.6456963E-2,-6.753228E-3,3.4860638E-3,-8.132025E-3,-1.6419513E-2,-3.7157636E-2,2.1677675E-2,-1.3330458E-2,3.1232104E-2,1.0603701E-2,1.4095051E-2,-3.3617206E-2,6.402797E-3,3.367887E-2,-5.300692E-4,3.538814E-2,-6.94237E-3,2.7351405E-2,2.6142674E-2,-2.8152356E-2,6.402797E-3,-2.2122055E-2,-3.1405423E-2,-8.085877E-3,2.3558846E-2,-4.541611E-3,3.2335777E-2,4.0330417E-3,-1.5546458E-2,2.4762148E-2,-2.8298795E-2,1.6712967E-2,-1.4265462E-2,-3.0518197E-2],"categories":[],"categories_nodes":[],"categories_segments":[],"categories_sizes":[],"default_left":[0,0,0,0,0,0,0,0,0,0,0,0,0,0,0,0,0,0,0,0,0,0,0,0,0,0,0,0,0,0,0,0,0,0,0,0,0,0,0,0,0,0,0,0,0,0,0,0,0,0,0,0,0,0,0,0,0,0,0,0,0,0,0,0,0,0,0,0,0,0,0,0,0,0,0,0,0,0,0,0,0,0,0,0,0,0,0,0,0,0,0,0,0,0,0,0,0,0,0,0,0,0,0,0,0,0,0,0,0,0,0,0,0,0,0,0,0,0,0,0,0,0,0],"id":1,"left_children":[1,3,5,7,9,11,13,15,17,19,21,23,25,27,29,31,33,35,37,39,41,-1,-1,43,45,47,49,51,53,55,57,59,61,63,65,67,69,71,-1,-1,73,-1,-1,75,77,-1,79,-1,-1,-1,-1,81,83,85,-1,-1,87,-1,-1,89,-1,-1,-1,91,93,-1,-1,-1,-1,95,97,-1,99,101,-1,103,105,107,-1,-1,-1,-1,109,111,113,115,117,119,121,-1,-1,-1,-1,-1,-1,-1,-1,-1,-1,-1,-1,-1,-1,-1,-1,-1,-1,-1,-1,-1,-1,-1,-1,-1,-1,-1,-1,-1,-1,-1,-1,-1,-1],"loss_changes":[1.4926738E3,3.2564362E2,3.287088E2,7.423816E1,3.0757668E1,2.1215704E2,1.6337756E2,7.405723E1,8.559009E1,1.3481202E1,1.3533554E0,4.18302E1,4.544992E1,3.211171E1,3.2523216E1,2.0352388E1,1.0044746E1,3.268136E1,1.2502686E1,1.1019712E1,1.1138993E1,0E0,0E0,6.167563E1,3.21698E0,6.7437744E-1,1.3735752E0,1.036104E1,1.138443E1,2.1978851E1,6.91605E0,8.911303E0,4.706497E0,7.476494E0,3.2767584E0,4.630867E0,3.9348812E0,7.4382324E0,0E0,0E0,3.6041937E0,0E0,0E0,2.5668823E1,9.030927E1,0E0,1.8363597E0,0E0,0E0,0E0,0E0,6.482832E0,8.421622E0,2.3993328E1,0E0,0E0,1.861908E0,0E0,0E0,7.517152E-1,0E0,0E0,0E0,4.2895505E-1,8.897476E-1,0E0,0E0,0E0,0E0,6.1719475E0,3.1096268E-1,0E0,2.5745262E1,2.117155E0,0E0,9.505463E0,9.829138E0,1.827109E1,0E0,0E0,0E0,0E0,2.510571E0,3.4162083E0,2.0049992E0,1.7780228E0,2.5582073E1,1.2012286E1,2.0449219E0,0E0,0E0,0E0,0E0,0E0,0E0,0E0,0E0,0E0,0E0,0E0,0E0,0E0,0E0,0E0,0E0,0E0,0E0,0E0,0E0,0E0,0E0,0E0,0E0,0E0,0E0,0E0,0E0,0E0,0E0,0E0,0E0,0E0,0E0],"parents":[2147483647,0,0,1,1,2,2,3,3,4,4,5,5,6,6,7,7,8,8,9,9,10,10,11,11,12,12,13,13,14,14,15,15,16,16,17,17,18,18,19,19,20,20,23,23,24,24,25,25,26,26,27,27,28,28,29,29,30,30,31,31,32,32,33,33,34,34,35,35,36,36,37,37,40,40,43,43,44,44,46,46,51,51,52,52,53,53,56,56,59,59,63,63,64,64,69,69,70,70,72,72,73,73,75,75,76,76,77,77,82,82,83,83,84,84,85,85,86,86,87,87,88,88],"right_children":[2,4,6,8,10,12,14,16,18,20,22,24,26,28,30,32,34,36,38,40,42,-1,-1,44,46,48,50,52,54,56,58,60,62,64,66,68,70,72,-1,-1,74,-1,-1,76,78,-1,80,-1,-1,-1,-1,82,84,86,-1,-1,88,-1,-1,90,-1,-1,-1,92,94,-1,-1,-1,-1,96,98,-1,100,102,-1,104,106,108,-1,-1,-1,-1,110,112,114,116,118,120,122,-1,-1,-1,-1,-1,-1,-1,-1,-1,-1,-1,-1,-1,-1,-1,-1,-1,-1,-1,-1,-1,-1,-1,-1,-1,-1,-1,-1,-1,-1,-1,-1,-1,-1],"split_conditions":[5.0327927E-1,1.06089E-2,-7.6491736E-2,8.9967155E-1,6.613407E-1,2.551649E-1,1.6182162E-1,-3.281093E-1,-1.750699E-1,2.3803021E-1,4.8964778E-1,-5.21808E-1,-3.281093E-1,-4.6265063E-1,8.4055924E-1,-1.750699E-1,4.400226E0,5.6186195E-2,1.5683131E0,4.99568E-2,1.06662445E-1,3.7562087E-2,1.0603701E-2,8.9967155E-1,2.4247488E-1,-1.0146252E-1,7.4946034E-1,7.061001E-1,8.4055924E-1,-4.2348057E-1,-5.21808E-1,-5.21808E-1,8.9352585E-2,-1.0146252E-1,8.6459166E-1,1.1222143E-1,3.102968E-1,-3.281093E-1,1.0603701E-2,-2.3870492E-2,2.144474E-1,1.4991672E-2,-3.271687E-2,-3.281093E-1,-3.281093E-1,3.749247E-2,-3.298951E-1,-3.4436487E-2,-1.4887701E-2,4.2487485E-3,3.1657685E-2,1.181596E0,8.081852E-1,9.299785E-1,3.345152E-2,2.7134717E-2,1.7512582E-1,-9.285036E-3,2.8871045E-2,-6.0754114E-1,2.3558846E-2,-4.541611E-3,3.258971E-2,2.0510584E-1,-7.6491736E-2,-1.0937789E-2,2.1832641E-2,4.2487485E-3,-3.429633E-2,-1.3587348E-2,4.3209377E-1,-3.9151542E-2,-2.652049E-1,-7.660921E-1,-4.541611E-3,-6.649941E-1,8.258363E-1,-1.750699E-1,3.3531006E-2,-4.541611E-3,2.1062605E-2,2.7351405E-2,1.4402318E-1,7.4383485E-1,1.1428316E-1,1.5027794E-1,3.5719628E0,6.495619E-2,5.3728545E-1,-2.6456963E-2,-6.753228E-3,3.4860638E-3,-8.132025E-3,-1.6419513E-2,-3.7157636E-2,2.1677675E-2,-1.3330458E-2,3.1232104E-2,1.0603701E-2,1.4095051E-2,-3.3617206E-2,6.402797E-3,3.367887E-2,-5.300692E-4,3.538814E-2,-6.94237E-3,2.7351405E-2,2.6142674E-2,-2.8152356E-2,6.402797E-3,-2.2122055E-2,-3.1405423E-2,-8.085877E-3,2.3558846E-2,-4.541611E-3,3.2335777E-2,4.0330417E-3,-1.5546458E-2,2.4762148E-2,-2.8298795E-2,1.6712967E-2,-1.4265462E-2,-3.0518197E-2],"split_indices":[12,11,2,1,11,13,13,2,4,2,2,11,2,11,12,4,8,12,10,12,13,0,0,1,13,9,12,12,12,9,11,11,12,9,9,2,12,2,0,0,13,0,0,2,2,0,10,0,0,0,0,2,12,2,0,0,2,0,0,10,0,0,0,13,2,0,0,0,0,2,12,0,2,10,0,9,12,4,0,0,0,0,13,9,13,13,2,10,12,0,0,0,0,0,0,0,0,0,0,0,0,0,0,0,0,0,0,0,0,0,0,0,0,0,0,0,0,0,0,0,0,0,0],"split_type":[0,0,0,0,0,0,0,0,0,0,0,0,0,0,0,0,0,0,0,0,0,0,0,0,0,0,0,0,0,0,0,0,0,0,0,0,0,0,0,0,0,0,0,0,0,0,0,0,0,0,0,0,0,0,0,0,0,0,0,0,0,0,0,0,0,0,0,0,0,0,0,0,0,0,0,0,0,0,0,0,0,0,0,0,0,0,0,0,0,0,0,0,0,0,0,0,0,0,0,0,0,0,0,0,0,0,0,0,0,0,0,0,0,0,0,0,0,0,0,0,0,0,0],"sum_hessian":[1.1245969E3,4.7989935E2,6.446976E2,4.339218E2,4.5977543E1,4.6698727E2,1.7771033E2,5.6237377E1,3.7768442E2,1.7995268E1,2.7982275E1,4.3624222E2,3.0745058E1,8.971942E1,8.7990906E1,2.2491568E1,3.374581E1,2.2244495E1,3.5543994E2,1.0996199E1,6.99907E0,2.6232529E1,1.7497466E0,1.6816881E2,2.680734E2,2.5247353E1,5.497704E0,2.149697E1,6.822246E1,8.099307E1,6.997829E0,6.9993005E0,1.5492267E1,3.0746206E1,2.9996061E0,7.749147E0,1.4495349E1,3.536902E2,1.7497466E0,1.499956E0,9.496243E0,2.2495422E0,4.749528E0,1.24182434E2,4.398638E1,2.645741E2,3.4992995E0,2.2247496E1,2.9998572E0,1.2499028E0,4.2478013E0,7.2480874E0,1.4248882E1,4.44858E1,2.3736652E1,2.249062E0,7.874401E1,2.2499914E0,4.7478375E0,5.4998183E0,1.4994819E0,1.2499762E0,1.42422905E1,3.2498665E0,2.749634E1,1.7499979E0,1.2496083E0,1.2499028E0,6.499244E0,6.248907E0,8.246442E0,3.066957E2,4.6994473E1,8.246266E0,1.2499762E0,1.1093421E2,1.3248219E1,2.3497938E1,2.0488441E1,1.2499762E0,2.2493234E0,3.9983096E0,3.249778E0,1.1499424E1,2.749458E0,2.0739536E1,2.3746265E1,1.0248963E1,6.849505E1,3.4998395E0,1.9999789E0,1.7499244E0,1.4999421E0,3.2499907E0,2.424635E1,3.4989069E0,2.75E0,6.496695E0,1.7497466E0,4.4991393E0,4.2495335E1,1.9998035E0,6.246463E0,2.9990053E0,1.0793521E2,9.249909E0,3.9983096E0,1.9992073E0,2.1498732E1,1.9998035E0,1.2499745E0,6.2494583E0,5.2499657E0,1.4994819E0,1.2499762E0,1.9490013E1,1.2495246E0,1.3749979E1,9.996286E0,7.749536E0,2.4994268E0,5.999998E0,6.2495052E1],"tree_param":{"num_deleted":"0","num_feature":"14","num_nodes":"123","size_leaf_vector":"1"}},{"base_weights":[3.399532E-4,-1.3080567E0,9.7494155E-1,-1.5711243E0,1.1556942E0,1.4064649E0,-1.5990265E-1,-5.089117E-1,-1.7275542E0,1.3899823E-1,1.7825495E0,1.5822364E0,-1.0574998E0,7.675623E-1,-1.103403E0,8.4845155E-1,-1.4118555E0,1.3415664E-1,-1.8441489E0,7.912918E-1,-8.564531E-1,3.6885794E-2,1.0469798E-2,1.1845933E0,1.8264359E0,-1.6085113E0,1.3313092E0,-2.6925474E-1,1.0935661E0,-1.2789795E0,8.3468014E-1,-4.9399245E-1,1.4484961E0,-1.5750548E0,2.3597859E-1,-1.3910395E0,9.866983E-1,-1.8573143E0,1.0469798E-2,-2.3587925E-2,1.1854575E0,1.4786897E-2,-3.2192256E-2,1.5358381E0,1.8115011E-1,3.679415E-2,6.3788086E-1,-3.3262353E-2,-1.0748575E-2,4.20164E-3,3.1169876E-2,6.322531E-1,-7.39148E-1,7.7128714E-1,3.284364E-2,2.6772853E-2,-1.3695787E0,-9.156493E-3,2.84136E-2,-1.0555341E0,2.3284307E-2,-4.4911113E-3,3.2011557E-2,-1.249595E-1,-1.7361574E0,-1.0798703E-2,2.1596214E-2,4.20164E-3,-3.372143E-2,3.225679E-1,1.4007968E0,-3.8405944E-2,-1.4149331E0,1.4005228E0,-4.4911113E-3,1.6888701E0,2.2691675E-1,-1.1106155E0,3.29257E-2,-4.4911113E-3,2.0777907E-2,2.6930103E-2,-3.5617194E-1,-1.0940843E0,6.412187E-1,1.5168626E0,8.5508525E-2,-8.251094E-1,-1.4380025E0,-2.4950925E-2,2.646446E-6,3.4417482E-3,-8.034303E-3,-1.616957E-2,-3.6472216E-2,2.1348879E-2,-1.3135387E-2,3.0716235E-2,1.0469798E-2,1.3867217E-2,-3.2980938E-2,6.3177445E-3,3.3129487E-2,1.6053895E-2,3.5944358E-2,-6.8170093E-3,2.6930103E-2,2.5806148E-2,-2.7625365E-2,6.3177445E-3,-2.1878982E-2,-3.087842E-2,-7.950001E-3,2.3284307E-2,-4.4911113E-3,8.564087E-3,3.241181E-2,-1.5257756E-2,2.4326006E-2,-2.7807917E-2,1.6478062E-2,-1.4021632E-2,-2.9932432E-2],"categories":[],"categories_nodes":[],"categories_segments":[],"categories_sizes":[],"default_left":[0,0,0,0,0,0,0,0,0,0,0,0,0,0,0,0,0,0,0,0,0,0,0,0,0,0,0,0,0,0,0,0,0,0,0,0,0,0,0,0,0,0,0,0,0,0,0,0,0,0,0,0,0,0,0,0,0,0,0,0,0,0,0,0,0,0,0,0,0,0,0,0,0,0,0,0,0,0,0,0,0,0,0,0,0,0,0,0,0,0,0,0,0,0,0,0,0,0,0,0,0,0,0,0,0,0,0,0,0,0,0,0,0,0,0,0,0,0,0,0,0,0,0],"id":2,"left_children":[1,3,5,7,9,11,13,15,17,19,21,23,25,27,29,31,33,35,37,39,41,-1,-1,43,45,47,49,51,53,55,57,59,61,63,65,67,69,71,-1,-1,73,-1,-1,75,77,-1,79,-1,-1,-1,-1,81,83,85,-1,-1,87,-1,-1,89,-1,-1,-1,91,93,-1,-1,-1,-1,95,97,-1,99,101,-1,103,105,107,-1,-1,-1,-1,109,111,113,115,117,119,121,-1,-1,-1,-1,-1,-1,-1,-1,-1,-1,-1,-1,-1,-1,-1,-1,-1,-1,-1,-1,-1,-1,-1,-1,-1,-1,-1,-1,-1,-1,-1,-1,-1,-1],"loss_changes":[1.4352812E3,3.1324274E2,3.1612134E2,7.1329346E1,2.9662926E1,2.0412634E2,1.5714125E2,7.130395E1,8.237756E1,1.3004866E1,1.2847443E0,4.0244873E1,4.3900932E1,3.0938E1,3.1335411E1,1.9625225E1,9.710228E0,3.1580725E1,1.2073242E1,1.0710827E1,1.0799952E1,0E0,0E0,5.9289032E1,3.0653076E0,6.4045715E-1,1.3266563E0,9.9941025E0,1.0963226E1,2.12695E1,6.70507E0,8.6755E0,4.552021E0,7.194809E0,3.2012997E0,4.485094E0,3.8073206E0,7.1569824E0,0E0,0E0,3.4953356E0,0E0,0E0,2.4665771E1,8.690889E1,0E0,1.7890061E0,0E0,0E0,0E0,0E0,6.3001966E0,8.170566E0,2.3113539E1,0E0,0E0,1.7829895E0,0E0,0E0,1.3174372E0,0E0,0E0,0E0,4.1850924E-1,8.3592224E-1,0E0,0E0,0E0,0E0,5.9876633E0,2.9049683E-1,0E0,2.4818672E1,2.0417156E0,0E0,9.292633E0,9.514214E0,1.7694736E1,0E0,0E0,0E0,0E0,2.4525206E0,3.3019285E0,1.9587916E0,1.7588005E0,2.4661371E1,1.1627657E1,1.9514008E0,0E0,0E0,0E0,0E0,0E0,0E0,0E0,0E0,0E0,0E0,0E0,0E0,0E0,0E0,0E0,0E0,0E0,0E0,0E0,0E0,0E0,0E0,0E0,0E0,0E0,0E0,0E0,0E0,0E0,0E0,0E0,0E0,0E0,0E0],"parents":[2147483647,0,0,1,1,2,2,3,3,4,4,5,5,6,6,7,7,8,8,9,9,10,10,11,11,12,12,13,13,14,14,15,15,16,16,17,17,18,18,19,19,20,20,23,23,24,24,25,25,26,26,27,27,28,28,29,29,30,30,31,31,32,32,33,33,34,34,35,35,36,36,37,37,40,40,43,43,44,44,46,46,51,51,52,52,53,53,56,56,59,59,63,63,64,64,69,69,70,70,72,72,73,73,75,75,76,76,77,77,82,82,83,83,84,84,85,85,86,86,87,87,88,88],"right_children":[2,4,6,8,10,12,14,16,18,20,22,24,26,28,30,32,34,36,38,40,42,-1,-1,44,46,48,50,52,54,56,58,60,62,64,66,68,70,72,-1,-1,74,-1,-1,76,78,-1,80,-1,-1,-1,-1,82,84,86,-1,-1,88,-1,-1,90,-1,-1,-1,92,94,-1,-1,-1,-1,96,98,-1,100,102,-1,104,106,108,-1,-1,-1,-1,110,112,114,116,118,120,122,-1,-1,-1,-1,-1,-1,-1,-1,-1,-1,-1,-1,-1,-1,-1,-1,-1,-1,-1,-1,-1,-1,-1,-1,-1,-1,-1,-1,-1,-1,-1,-1,-1,-1],"split_conditions":[5.0327927E-1,1.06089E-2,-7.6491736E-2,8.9967155E-1,6.613407E-1,2.551649E-1,1.6182162E-1,-3.281093E-1,-1.750699E-1,2.3803021E-1,4.8964778E-1,-5.21808E-1,-3.281093E-1,-4.6265063E-1,8.4055924E-1,-1.750699E-1,4.400226E0,5.6186195E-2,1.5683131E0,4.99568E-2,1.06662445E-1,3.6885794E-2,1.0469798E-2,8.9967155E-1,2.4247488E-1,-6.1210267E-2,7.4946034E-1,7.061001E-1,8.4055924E-1,-4.2348057E-1,-5.21808E-1,-5.21808E-1,8.9352585E-2,-1.0146252E-1,8.6459166E-1,1.1222143E-1,3.102968E-1,-3.281093E-1,1.0469798E-2,-2.3587925E-2,2.144474E-1,1.4786897E-2,-3.2192256E-2,-3.281093E-1,-3.281093E-1,3.679415E-2,-3.298951E-1,-3.3262353E-2,-1.0748575E-2,4.20164E-3,3.1169876E-2,1.181596E0,8.081852E-1,9.299785E-1,3.284364E-2,2.6772853E-2,1.7512582E-1,-9.156493E-3,2.84136E-2,-3.4297606E-1,2.3284307E-2,-4.4911113E-3,3.2011557E-2,2.0510584E-1,-7.6491736E-2,-1.0798703E-2,2.1596214E-2,4.20164E-3,-3.372143E-2,-1.3587348E-2,4.3209377E-1,-3.8405944E-2,-2.652049E-1,-7.660921E-1,-4.4911113E-3,-1.750699E-1,8.258363E-1,-1.750699E-1,3.29257E-2,-4.4911113E-3,2.0777907E-2,2.6930103E-2,1.4402318E-1,7.4383485E-1,1.1428316E-1,2.0857517E-1,3.5719628E0,6.495619E-2,5.3728545E-1,-2.4950925E-2,2.646446E-6,3.4417482E-3,-8.034303E-3,-1.616957E-2,-3.6472216E-2,2.1348879E-2,-1.3135387E-2,3.0716235E-2,1.0469798E-2,1.3867217E-2,-3.2980938E-2,6.3177445E-3,3.3129487E-2,1.6053895E-2,3.5944358E-2,-6.8170093E-3,2.6930103E-2,2.5806148E-2,-2.7625365E-2,6.3177445E-3,-2.1878982E-2,-3.087842E-2,-7.950001E-3,2.3284307E-2,-4.4911113E-3,8.564087E-3,3.241181E-2,-1.5257756E-2,2.4326006E-2,-2.7807917E-2,1.6478062E-2,-1.4021632E-2,-2.9932432E-2],"split_indices":[12,11,2,1,11,13,13,2,4,2,2,11,2,11,12,4,8,12,10,12,13,0,0,1,13,9,12,12,12,9,11,11,12,9,9,2,12,2,0,0,13,0,0,2,2,0,10,0,0,0,0,2,12,2,0,0,2,0,0,9,0,0,0,13,2,0,0,0,0,2,12,0,2,10,0,4,12,4,0,0,0,0,13,9,13,10,2,10,12,0,0,0,0,0,0,0,0,0,0,0,0,0,0,0,0,0,0,0,0,0,0,0,0,0,0,0,0,0,0,0,0,0,0],"split_type":[0,0,0,0,0,0,0,0,0,0,0,0,0,0,0,0,0,0,0,0,0,0,0,0,0,0,0,0,0,0,0,0,0,0,0,0,0,0,0,0,0,0,0,0,0,0,0,0,0,0,0,0,0,0,0,0,0,0,0,0,0,0,0,0,0,0,0,0,0,0,0,0,0,0,0,0,0,0,0,0,0,0,0,0,0,0,0,0,0,0,0,0,0,0,0,0,0,0,0,0,0,0,0,0,0,0,0,0,0,0,0,0,0,0,0,0,0,0,0,0,0,0,0],"sum_hessian":[1.1235647E3,4.794986E2,6.4406604E2,4.335667E2,4.5931896E1,4.6645694E2,1.7760912E2,5.620036E1,3.7736633E2,1.7984535E1,2.7947361E1,4.3573108E2,3.072584E1,8.96597E1,8.794941E1,2.2474936E1,3.3725426E1,2.2231827E1,3.5513452E2,1.0988892E1,6.995644E0,2.6197887E1,1.7494739E0,1.6800708E2,2.67724E2,2.5232307E1,5.493531E0,2.1489359E1,6.817034E1,8.09555E1,6.99391E0,6.997218E0,1.5477718E1,3.072648E1,2.9989438E0,7.744782E0,1.4487044E1,3.5338504E2,1.7494739E0,1.4995486E0,9.489343E0,2.2489347E0,4.7467093E0,1.2405305E2,4.3954037E1,2.6422577E2,3.4982471E0,2.3482378E1,1.7499303E0,1.2498504E0,4.243681E0,7.244668E0,1.4244691E1,4.4459133E1,2.3711208E1,2.247403E0,7.870809E1,2.2499838E0,4.743926E0,5.4986005E0,1.4986176E0,1.2499945E0,1.4227724E1,3.2498674E0,2.7476614E1,1.7499671E0,1.2489767E0,1.2498504E0,6.4949317E0,6.2470303E0,8.240014E0,3.0641864E2,4.6966415E1,8.239348E0,1.2499945E0,1.1080773E2,1.3245314E1,2.348765E1,2.0466387E1,1.2499945E0,2.2482526E0,3.995315E0,3.249353E0,1.1496079E1,2.7486122E0,2.0720266E1,2.3738867E1,1.0244909E1,6.846319E1,4.4986005E0,1E0,1.749883E0,1.4999843E0,3.2496827E0,2.422693E1,3.497156E0,2.7498744E0,6.49054E0,1.7494739E0,4.4980392E0,4.246838E1,1.9996562E0,6.239692E0,1.2987941E1,9.7819786E1,9.249999E0,3.995315E0,1.9978259E0,2.1489824E1,1.9996562E0,1.2496966E0,6.246091E0,5.249988E0,1.4986176E0,1.2499945E0,2.2486036E0,1.8471663E1,1.3748879E1,9.989987E0,7.746289E0,2.49862E0,5.9996424E0,6.2463543E1],"tree_param":{"num_deleted":"0","num_feature":"14","num_nodes":"123","size_leaf_vector":"1"}},{"base_weights":[5.206213E-4,-1.2838061E0,9.5723045E-1,-1.5166485E0,1.3961684E0,1.3810484E0,-1.5648542E-1,-3.0424425E-1,-1.6396544E0,4.7392532E-1,3.627633E-2,1.5537117E0,-1.0377496E0,7.5380045E-1,-1.0823691E0,-8.2104325E-1,9.814297E-1,-3.5104075E-1,-1.7850817E0,9.8192644E-1,-5.850303E-1,1.1632222E0,1.7936283E0,-1.579719E0,1.3113936E0,-2.6440755E-1,1.0741262E0,-1.2548276E0,8.2100856E-1,1.6170633E-1,-1.5857885E0,-1.2998644E-2,1.2207316E0,1.4230838E0,-1.4414234E0,-1.8542045E0,-7.6061434E-1,-1.331528E-2,3.0216923E-2,-2.3414016E-2,1.3011082E-2,1.5080581E0,1.7843206E-1,3.613275E-2,6.289624E-1,-3.3200845E-2,-1.4368344E-2,4.155076E-3,3.0701568E-2,6.213824E-1,-7.2605157E-1,7.5764966E-1,3.22632E-2,2.6422368E-2,-1.3440284E0,-9.030003E-3,2.7972646E-2,-3.5767263E-1,2.9373692E-2,-3.6008276E-2,7.98506E-3,4.7440442E-1,1.4348081E0,-9.997076E-3,3.1596735E-2,1.55306505E-2,-1.6057285E0,-3.789442E-2,-1.4905488E0,-9.689332E-1,2.4745418E-2,1.65839E0,2.2386555E-1,-1.089332E0,3.234776E-2,-4.4411966E-3,2.0500116E-2,2.6522927E-2,-3.5277507E-1,-1.0758728E0,6.336238E-1,1.4904011E0,8.420879E-2,-8.101502E-1,-1.4111068E0,-1.7577643E-2,1.7702425E-2,2.485749E-2,-1.350916E-2,9.896729E-3,3.2233298E-2,-1.0088716E-2,-3.55328E-2,8.028688E-3,-3.3828795E-2,-2.585345E-2,-3.5200508E-3,-8.376964E-4,3.4113906E-2,-6.6940538E-3,2.6522927E-2,2.5479618E-2,-2.711812E-2,6.233899E-3,-2.1641493E-2,-3.0372774E-2,-7.816627E-3,2.3016728E-2,-4.4411966E-3,3.1217612E-2,3.7359265E-3,-1.4976052E-2,2.3903877E-2,-2.733493E-2,1.6248029E-2,-1.3783136E-2,-2.9370828E-2],"categories":[],"categories_nodes":[],"categories_segments":[],"categories_sizes":[],"default_left":[0,0,0,0,0,0,0,0,0,0,0,0,0,0,0,0,0,0,0,0,0,0,0,0,0,0,0,0,0,0,0,0,0,0,0,0,0,0,0,0,0,0,0,0,0,0,0,0,0,0,0,0,0,0,0,0,0,0,0,0,0,0,0,0,0,0,0,0,0,0,0,0,0,0,0,0,0,0,0,0,0,0,0,0,0,0,0,0,0,0,0,0,0,0,0,0,0,0,0,0,0,0,0,0,0,0,0,0,0,0,0,0,0,0,0,0,0],"id":3,"left_children":[1,3,5,7,9,11,13,15,17,19,-1,21,23,25,27,29,31,33,35,37,39,41,43,45,47,49,51,53,55,57,59,-1,61,63,65,67,69,-1,-1,-1,-1,71,73,-1,75,-1,-1,-1,-1,77,79,81,-1,-1,83,-1,-1,85,-1,-1,-1,87,89,-1,-1,-1,91,-1,93,95,-1,97,99,101,-1,-1,-1,-1,103,105,107,109,111,113,115,-1,-1,-1,-1,-1,-1,-1,-1,-1,-1,-1,-1,-1,-1,-1,-1,-1,-1,-1,-1,-1,-1,-1,-1,-1,-1,-1,-1,-1,-1,-1,-1],"loss_changes":[1.3809579E3,3.0151544E2,3.0423804E2,6.540613E1,1.4113686E1,1.965047E2,1.5121028E2,2.8667946E1,7.451831E1,7.8211427E0,0E0,3.8756714E1,4.2420338E1,2.9823658E1,3.0203331E1,2.3145004E1,5.664876E0,8.312374E1,2.4088257E1,9.265078E0,4.3753886E0,5.7040848E1,2.927246E0,6.202774E-1,1.2825956E0,9.642233E0,1.0564301E1,2.0591003E1,6.5029387E0,1.0188478E1,8.055111E0,0E0,1.1135044E0,5.7499886E0,1.088702E1,2.13562E0,1.1376967E1,0E0,0E0,0E0,0E0,2.373349E1,8.367502E1,0E0,1.7431912E0,0E0,0E0,0E0,0E0,6.124671E0,7.9290667E0,2.2286966E1,0E0,0E0,1.7088776E0,0E0,0E0,7.897556E0,0E0,0E0,0E0,4.371481E0,5.7108116E-1,0E0,0E0,0E0,3.8008575E0,0E0,1.5286697E1,5.60137E0,0E0,9.049164E0,9.211901E0,1.7142574E1,0E0,0E0,0E0,0E0,2.396135E0,3.1947355E0,1.9140236E0,1.701397E0,2.3778904E1,1.1259061E1,1.8657379E0,0E0,0E0,0E0,0E0,0E0,0E0,0E0,0E0,0E0,0E0,0E0,0E0,0E0,0E0,0E0,0E0,0E0,0E0,0E0,0E0,0E0,0E0,0E0,0E0,0E0,0E0,0E0,0E0,0E0,0E0,0E0,0E0],"parents":[2147483647,0,0,1,1,2,2,3,3,4,4,5,5,6,6,7,7,8,8,9,9,11,11,12,12,13,13,14,14,15,15,16,16,17,17,18,18,19,19,20,20,21,21,22,22,23,23,24,24,25,25,26,26,27,27,28,28,29,29,30,30,32,32,33,33,34,34,35,35,36,36,41,41,42,42,44,44,49,49,50,50,51,51,54,54,57,57,61,61,62,62,66,66,68,68,69,69,71,71,72,72,73,73,78,78,79,79,80,80,81,81,82,82,83,83,84,84],"right_children":[2,4,6,8,10,12,14,16,18,20,-1,22,24,26,28,30,32,34,36,38,40,42,44,46,48,50,52,54,56,58,60,-1,62,64,66,68,70,-1,-1,-1,-1,72,74,-1,76,-1,-1,-1,-1,78,80,82,-1,-1,84,-1,-1,86,-1,-1,-1,88,90,-1,-1,-1,92,-1,94,96,-1,98,100,102,-1,-1,-1,-1,104,106,108,110,112,114,116,-1,-1,-1,-1,-1,-1,-1,-1,-1,-1,-1,-1,-1,-1,-1,-1,-1,-1,-1,-1,-1,-1,-1,-1,-1,-1,-1,-1,-1,-1,-1,-1],"split_conditions":[5.0327927E-1,1.8808122E-1,-7.6491736E-2,-1.750699E-1,8.3881307E-1,2.551649E-1,1.6182162E-1,1.3775403E0,8.9967155E-1,2.3803021E-1,3.627633E-2,-5.21808E-1,-3.281093E-1,-4.6265063E-1,8.4055924E-1,3.63839E-1,6.464342E-2,-3.281093E-1,-4.0349317E-1,7.2924756E-2,1.2671143E0,8.9967155E-1,2.4247488E-1,-1.0146252E-1,7.4946034E-1,7.061001E-1,8.4055924E-1,-4.2348057E-1,-5.21808E-1,-5.21808E-1,4.400226E0,-1.2998644E-2,2.6807016E-1,6.917425E-2,8.41463E-2,-3.281093E-1,1.5683131E0,-1.331528E-2,3.0216923E-2,-2.3414016E-2,1.3011082E-2,-3.281093E-1,-3.281093E-1,3.613275E-2,-3.298951E-1,-3.3200845E-2,-1.4368344E-2,4.155076E-3,3.0701568E-2,1.181596E0,8.081852E-1,9.299785E-1,3.22632E-2,2.6422368E-2,1.7512582E-1,-9.030003E-3,2.7972646E-2,8.9967155E-1,2.9373692E-2,-3.6008276E-2,7.98506E-3,1.6387296E-1,-5.149076E-1,-9.997076E-3,3.1596735E-2,1.55306505E-2,-2.652049E-1,-3.789442E-2,-2.652049E-1,-4.854854E-2,2.4745418E-2,-6.649941E-1,8.258363E-1,-1.750699E-1,3.234776E-2,-4.4411966E-3,2.0500116E-2,2.6522927E-2,1.4402318E-1,7.4383485E-1,1.1428316E-1,1.5027794E-1,3.5719628E0,6.495619E-2,5.3728545E-1,-1.7577643E-2,1.7702425E-2,2.485749E-2,-1.350916E-2,9.896729E-3,3.2233298E-2,-1.0088716E-2,-3.55328E-2,8.028688E-3,-3.3828795E-2,-2.585345E-2,-3.5200508E-3,-8.376964E-4,3.4113906E-2,-6.6940538E-3,2.6522927E-2,2.5479618E-2,-2.711812E-2,6.233899E-3,-2.1641493E-2,-3.0372774E-2,-7.816627E-3,2.3016728E-2,-4.4411966E-3,3.1217612E-2,3.7359265E-3,-1.4976052E-2,2.3903877E-2,-2.733493E-2,1.6248029E-2,-1.3783136E-2,-2.9370828E-2],"split_indices":[12,11,2,4,11,13,13,7,1,2,0,11,2,11,12,2,12,2,11,12,9,1,13,9,12,12,12,9,11,11,8,0,12,12,13,2,10,0,0,0,0,2,2,0,10,0,0,0,0,2,12,2,0,0,2,0,0,1,0,0,0,12,10,0,0,0,2,0,2,11,0,9,12,4,0,0,0,0,13,9,13,13,2,10,12,0,0,0,0,0,0,0,0,0,0,0,0,0,0,0,0,0,0,0,0,0,0,0,0,0,0,0,0,0,0,0,0],"split_type":[0,0,0,0,0,0,0,0,0,0,0,0,0,0,0,0,0,0,0,0,0,0,0,0,0,0,0,0,0,0,0,0,0,0,0,0,0,0,0,0,0,0,0,0,0,0,0,0,0,0,0,0,0,0,0,0,0,0,0,0,0,0,0,0,0,0,0,0,0,0,0,0,0,0,0,0,0,0,0,0,0,0,0,0,0,0,0,0,0,0,0,0,0,0,0,0,0,0,0,0,0,0,0,0,0,0,0,0,0,0,0,0,0,0,0,0,0],"sum_hessian":[1.1218921E3,4.7879544E2,6.430967E2,4.4092126E2,3.787419E1,4.656545E2,1.7744214E2,4.0933598E1,3.9998767E2,1.2470912E1,2.540328E1,4.3496283E2,3.0691689E1,8.956845E1,8.787369E1,2.9455027E1,1.1478569E1,4.09093E1,3.5907837E2,8.47705E0,3.9938614E0,1.6776167E2,2.6720117E2,2.5204346E1,5.487344E0,2.1476486E1,6.8091965E1,8.088565E1,6.9880347E0,1.3235308E1,1.6219719E1,1.2488688E0,1.0229701E1,1.5456095E1,2.5453209E1,3.356233E2,2.3455078E1,1.9970661E0,6.4799843E0,2.7451603E0,1.2487011E0,1.2385947E2,4.3902203E1,2.6370447E2,3.4967089E0,2.2206087E1,2.9982586E0,1.2497876E0,4.237556E0,7.239504E0,1.4236982E1,4.441858E1,2.3673384E1,2.2449577E0,7.864069E1,2.2498813E0,4.7381535E0,9.991236E0,3.244072E0,1.4721067E1,1.4986519E0,2.9970932E0,7.2326074E0,1E0,1.4456095E1,1.4985191E0,2.3954689E1,2.9819037E2,3.7432926E1,2.1706743E1,1.7483348E0,1.1061868E2,1.3240783E1,2.3468613E1,2.0433592E1,1.25E0,2.2467089E0,3.9909122E0,3.248592E0,1.1489626E1,2.747356E0,2.0691568E1,2.3727013E1,1.0237564E1,6.840313E1,7.245427E0,2.7458084E0,1.7479936E0,1.2490997E0,1.7467585E0,5.485849E0,3.7489893E0,2.02057E1,3.4972942E0,3.393563E1,1.4966106E1,6.7406373E0,2.9974358E0,1.0762125E2,9.24987E0,3.9909122E0,1.9957949E0,2.1472816E1,1.9994706E0,1.2491213E0,6.239783E0,5.249843E0,1.497356E0,1.25E0,1.9443022E1,1.2485453E0,1.3746186E1,9.980825E0,7.740081E0,2.4974833E0,5.9986973E0,6.240443E1],"tree_param":{"num_deleted":"0","num_feature":"14","num_nodes":"117","size_leaf_vector":"1"}},{"base_weights":[6.836639E-4,-1.260689E0,9.402702E-1,-1.5145077E0,1.1159533E0,1.3567985E0,-1.5322153E-1,-4.9056426E-1,-1.6654507E0,1.3356216E-1,1.7230222E0,1.5265195E0,-1.0189549E0,7.40474E-1,-1.0621246E0,8.178696E-1,-1.3609719E0,1.3156386E-1,-1.7781813E0,7.657615E-1,-8.3082503E-1,3.565999E-2,1.0098085E-2,1.1426704E0,1.7624997E0,-1.5523269E0,1.2921705E0,-2.597061E-1,1.0553383E0,-1.2315933E0,8.0775404E-1,-4.7825015E-1,1.3983834E0,-1.519484E0,2.343764E-1,-1.3466103E0,9.573203E-1,-1.7909726E0,1.0238553E-2,-2.3177773E-2,1.1518912E0,1.4508474E-2,-3.1340722E-2,1.4813589E0,1.7583057E-1,3.5505403E-2,6.202351E-1,-3.2620545E-2,-1.4156678E-2,4.1090474E-3,3.0251589E-2,6.108177E-1,-7.1334237E-1,7.443531E-1,3.170828E-2,2.6082715E-2,-1.3194524E0,-8.905507E-3,2.7547225E-2,-1.024206E0,2.2684423E-2,-4.4227173E-3,3.0926477E-2,-1.07205205E-1,-1.6773562E0,-1.054146E-2,2.1232555E-2,4.0693674E-3,-3.265843E-2,3.136075E-1,1.3590342E0,-3.7039388E-2,-1.3631614E0,1.3617979E0,-4.402095E-3,1.6291631E0,2.2087994E-1,-1.0688158E0,3.179525E-2,-4.391866E-3,2.0228956E-2,2.6129102E-2,-3.4943715E-1,-1.0582196E0,6.2618893E-1,1.464754E0,8.2943805E-2,-7.956837E-1,-1.3852512E0,-2.5417259E-2,-6.263616E-3,3.6896225E-3,-7.7040335E-3,-1.5803017E-2,-3.5211142E-2,2.0770302E-2,-1.2773631E-2,2.9795924E-2,1.0181821E-2,1.35966465E-2,-3.181462E-2,6.1294395E-3,3.2230984E-2,1.5262796E-2,3.470971E-2,-6.573452E-3,2.6129102E-2,2.5162628E-2,-2.6629364E-2,6.151249E-3,-2.1409394E-2,-2.9887114E-2,-7.6856827E-3,2.2755848E-2,-4.391866E-3,8.104959E-3,3.132958E-2,-1.4701074E-2,2.349497E-2,-2.6878752E-2,1.6022697E-2,-1.3549796E-2,-2.8831722E-2],"categories":[],"categories_nodes":[],"categories_segments":[],"categories_sizes":[],"default_left":[0,0,0,0,0,0,0,0,0,0,0,0,0,0,0,0,0,0,0,0,0,0,0,0,0,0,0,0,0,0,0,0,0,0,0,0,0,0,0,0,0,0,0,0,0,0,0,0,0,0,0,0,0,0,0,0,0,0,0,0,0,0,0,0,0,0,0,0,0,0,0,0,0,0,0,0,0,0,0,0,0,0,0,0,0,0,0,0,0,0,0,0,0,0,0,0,0,0,0,0,0,0,0,0,0,0,0,0,0,0,0,0,0,0,0,0,0,0,0,0,0,0,0],"id":4,"left_children":[1,3,5,7,9,11,13,15,17,19,21,23,25,27,29,31,33,35,37,39,41,-1,-1,43,45,47,49,51,53,55,57,59,61,63,65,67,69,71,-1,-1,73,-1,-1,75,77,-1,79,-1,-1,-1,-1,81,83,85,-1,-1,87,-1,-1,89,-1,-1,-1,91,93,-1,-1,-1,-1,95,97,-1,99,101,-1,103,105,107,-1,-1,-1,-1,109,111,113,115,117,119,121,-1,-1,-1,-1,-1,-1,-1,-1,-1,-1,-1,-1,-1,-1,-1,-1,-1,-1,-1,-1,-1,-1,-1,-1,-1,-1,-1,-1,-1,-1,-1,-1,-1,-1],"loss_changes":[1.3293286E3,2.905349E2,2.9298926E2,6.61134E1,2.766766E1,1.8929156E2,1.4554613E2,6.6089134E1,7.660486E1,1.2189974E1,1.205925E0,3.7384583E1,4.1012722E1,2.8757938E1,2.9123451E1,1.8287548E1,9.115135E0,2.9588696E1,1.1310303E1,1.02283535E1,1.028356E1,0E0,0E0,5.489589E1,2.8011475E0,5.8444977E-1,1.2411613E0,9.304653E0,1.0192444E1,1.9941475E1,6.3091245E0,8.194434E0,4.277878E0,6.874611E0,3.0771787E0,4.2045364E0,3.5714512E0,6.6885986E0,0E0,0E0,3.3146658E0,0E0,0E0,2.2854828E1,8.059658E1,0E0,1.6988497E0,0E0,0E0,0E0,0E0,5.9558635E0,7.6966295E0,2.1494083E1,0E0,0E0,1.6391144E0,0E0,0E0,7.4081707E-1,0E0,0E0,0E0,4.1564864E-1,7.0456696E-1,0E0,0E0,0E0,0E0,5.6615086E0,2.661724E-1,0E0,2.3326157E1,1.9359055E0,0E0,8.93042E0,8.921545E0,1.6613163E1,0E0,0E0,0E0,0E0,2.3413572E0,3.0940247E0,1.8706375E0,1.6990395E0,2.2932692E1,1.0905579E1,1.7870941E0,0E0,0E0,0E0,0E0,0E0,0E0,0E0,0E0,0E0,0E0,0E0,0E0,0E0,0E0,0E0,0E0,0E0,0E0,0E0,0E0,0E0,0E0,0E0,0E0,0E0,0E0,0E0,0E0,0E0,0E0,0E0,0E0,0E0,0E0],"parents":[2147483647,0,0,1,1,2,2,3,3,4,4,5,5,6,6,7,7,8,8,9,9,10,10,11,11,12,12,13,13,14,14,15,15,16,16,17,17,18,18,19,19,20,20,23,23,24,24,25,25,26,26,27,27,28,28,29,29,30,30,31,31,32,32,33,33,34,34,35,35,36,36,37,37,40,40,43,43,44,44,46,46,51,51,52,52,53,53,56,56,59,59,63,63,64,64,69,69,70,70,72,72,73,73,75,75,76,76,77,77,82,82,83,83,84,84,85,85,86,86,87,87,88,88],"right_children":[2,4,6,8,10,12,14,16,18,20,22,24,26,28,30,32,34,36,38,40,42,-1,-1,44,46,48,50,52,54,56,58,60,62,64,66,68,70,72,-1,-1,74,-1,-1,76,78,-1,80,-1,-1,-1,-1,82,84,86,-1,-1,88,-1,-1,90,-1,-1,-1,92,94,-1,-1,-1,-1,96,98,-1,100,102,-1,104,106,108,-1,-1,-1,-1,110,112,114,116,118,120,122,-1,-1,-1,-1,-1,-1,-1,-1,-1,-1,-1,-1,-1,-1,-1,-1,-1,-1,-1,-1,-1,-1,-1,-1,-1,-1,-1,-1,-1,-1,-1,-1,-1,-1],"split_conditions":[5.0327927E-1,1.06089E-2,-7.6491736E-2,8.9967155E-1,6.613407E-1,2.551649E-1,1.6182162E-1,-3.281093E-1,-1.750699E-1,2.3803021E-1,4.8964778E-1,-5.21808E-1,-3.281093E-1,-4.6265063E-1,8.4055924E-1,-1.750699E-1,4.400226E0,5.6186195E-2,1.5683131E0,4.99568E-2,1.06662445E-1,3.565999E-2,1.0098085E-2,8.9967155E-1,2.4247488E-1,-1.0146252E-1,7.4946034E-1,7.061001E-1,8.4055924E-1,-4.2348057E-1,-5.21808E-1,-5.21808E-1,8.9352585E-2,-1.0146252E-1,8.6459166E-1,1.1222143E-1,3.102968E-1,-3.281093E-1,1.0238553E-2,-2.3177773E-2,2.144474E-1,1.4508474E-2,-3.1340722E-2,-3.281093E-1,-3.281093E-1,3.5505403E-2,-3.298951E-1,-3.2620545E-2,-1.4156678E-2,4.1090474E-3,3.0251589E-2,1.181596E0,8.081852E-1,9.299785E-1,3.170828E-2,2.6082715E-2,1.7512582E-1,-8.905507E-3,2.7547225E-2,-6.0754114E-1,2.2684423E-2,-4.4227173E-3,3.0926477E-2,-1.8196703E-1,-7.6491736E-2,-1.054146E-2,2.1232555E-2,4.0693674E-3,-3.265843E-2,-1.3587348E-2,4.3209377E-1,-3.7039388E-2,-2.652049E-1,-7.660921E-1,-4.402095E-3,-1.750699E-1,8.258363E-1,-1.750699E-1,3.179525E-2,-4.391866E-3,2.0228956E-2,2.6129102E-2,1.4402318E-1,7.4383485E-1,1.1428316E-1,2.0857517E-1,3.5719628E0,6.495619E-2,5.3728545E-1,-2.5417259E-2,-6.263616E-3,3.6896225E-3,-7.7040335E-3,-1.5803017E-2,-3.5211142E-2,2.0770302E-2,-1.2773631E-2,2.9795924E-2,1.0181821E-2,1.35966465E-2,-3.181462E-2,6.1294395E-3,3.2230984E-2,1.5262796E-2,3.470971E-2,-6.573452E-3,2.6129102E-2,2.5162628E-2,-2.6629364E-2,6.151249E-3,-2.1409394E-2,-2.9887114E-2,-7.6856827E-3,2.2755848E-2,-4.391866E-3,8.104959E-3,3.132958E-2,-1.4701074E-2,2.349497E-2,-2.6878752E-2,1.6022697E-2,-1.3549796E-2,-2.8831722E-2],"split_indices":[12,11,2,1,11,13,13,2,4,2,2,11,2,11,12,4,8,12,10,12,13,0,0,1,13,9,12,12,12,9,11,11,12,9,9,2,12,2,0,0,13,0,0,2,2,0,10,0,0,0,0,2,12,2,0,0,2,0,0,10,0,0,0,9,2,0,0,0,0,2,12,0,2,10,0,4,12,4,0,0,0,0,13,9,13,10,2,10,12,0,0,0,0,0,0,0,0,0,0,0,0,0,0,0,0,0,0,0,0,0,0,0,0,0,0,0,0,0,0,0,0,0,0],"split_type":[0,0,0,0,0,0,0,0,0,0,0,0,0,0,0,0,0,0,0,0,0,0,0,0,0,0,0,0,0,0,0,0,0,0,0,0,0,0,0,0,0,0,0,0,0,0,0,0,0,0,0,0,0,0,0,0,0,0,0,0,0,0,0,0,0,0,0,0,0,0,0,0,0,0,0,0,0,0,0,0,0,0,0,0,0,0,0,0,0,0,0,0,0,0,0,0,0,0,0,0,0,0,0,0,0,0,0,0,0,0,0,0,0,0,0,0,0,0,0,0,0,0,0],"sum_hessian":[1.1196364E3,4.7782538E2,6.4181104E2,4.3204678E2,4.5778614E1,4.645976E2,1.7721342E2,5.605304E1,3.7599374E2,1.7950377E1,2.782824E1,4.3395392E2,3.0643696E1,8.944767E1,8.7765755E1,2.2416286E1,3.3636753E1,2.2184732E1,3.53809E2,1.0966984E1,6.9833922E0,2.6080366E1,1.7478715E0,1.674383E2,2.665156E2,2.5164454E1,5.4792433E0,2.1458614E1,6.798906E1,8.0785446E1,6.980304E0,6.9886985E0,1.54275875E1,3.0639954E1,2.9967988E0,7.7252035E0,1.445953E1,3.5206055E2,1.7484587E0,1.4981606E0,9.468823E0,2.2473843E0,4.7360077E0,1.23606285E2,4.3832016E1,2.630209E2,3.4947057E0,2.2167265E1,2.9971883E0,1.2497144E0,4.229529E0,7.2326784E0,1.4225936E1,4.4365143E1,2.3623917E1,2.2417612E0,7.8543686E1,2.249688E0,4.730616E0,5.49351E0,1.4951887E0,1.2499123E0,1.4177675E1,3.2495453E0,2.739041E1,1.749407E0,1.2473917E0,1.249547E0,6.4756565E0,6.2404337E0,8.219096E0,3.052145E2,4.684604E1,8.218828E0,1.2499955E0,1.10371574E2,1.3234706E1,2.3441326E1,2.039069E1,1.249993E0,2.2447126E0,3.985171E0,3.247507E0,1.148023E1,2.7457051E0,2.0654192E1,2.3710949E1,1.0227104E1,6.831658E1,3.4940472E0,1.9994626E0,1.7498816E0,1.4996637E0,3.2483864E0,2.4142023E1,3.4918213E0,2.7486124E0,6.470763E0,1.7483325E0,4.4960074E0,4.2350033E1,1.9990283E0,6.2197995E0,1.2962917E1,9.740866E1,9.249535E0,3.985171E0,1.9931418E0,2.1448185E1,1.9992484E0,1.2482588E0,6.230692E0,5.249539E0,1.4957122E0,1.249993E0,2.2459118E0,1.840828E1,1.3741986E1,9.968963E0,7.7310724E0,2.4960318E0,5.9971952E0,6.2319386E1],"tree_param":{"num_deleted":"0","num_feature":"14","num_nodes":"123","size_leaf_vector":"1"}},{"base_weights":[8.4352924E-4,-1.2387671E0,9.240852E-1,-1.4882913E0,1.0971155E0,1.3337156E0,-1.5004383E-1,-4.8214942E-1,-1.636726E0,1.3076618E-1,1.695102E0,1.5006442E0,-1.0009238E0,7.276712E-1,-1.0426185E0,8.036919E-1,-1.3376604E0,1.2996103E-1,-1.747697E0,7.524447E-1,-8.1738806E-1,3.5081416E-2,9.971864E-3,1.1230903E0,1.7329246E0,-1.5260886E0,1.2736013E0,-2.551434E-1,1.0373118E0,-1.2092168E0,7.948953E-1,-4.7020003E-1,1.3749543E0,-1.4939642E0,2.3246369E-1,-1.3252121E0,9.4248205E-1,-1.7959187E0,-9.978592E-1,-2.2912877E-2,1.1338251E0,1.4312835E-2,-3.087286E-2,1.4559485E0,1.7333838E-1,3.4909565E-2,6.116923E-1,-3.15558E-2,-1.0252995E-2,4.0635476E-3,2.9818859E-2,6.005445E-1,-7.010011E-1,7.31607E-1,3.1177098E-2,2.575338E-2,-1.2957871E0,-8.7829735E-3,2.7136456E-2,-1.0092977E0,2.2431724E-2,-4.373601E-3,3.0418653E-2,-1.060099E-1,-1.6494449E0,-1.0408521E-2,2.1009583E-2,4.024325E-3,-3.2156046E-2,3.086419E-1,1.338372E0,-3.6597047E-2,-1.4518259E0,-1.1510037E0,1.5168352E-2,1.3410366E0,-4.353213E-3,1.6014173E0,2.1795765E-1,-1.0490191E0,1.5633206E0,-4.3431036E-3,1.9964155E-2,2.5747914E-2,-3.4615707E-1,-1.0410955E0,6.1890924E-1,1.4403516E0,8.171211E-2,-7.8168243E-1,-1.3603666E0,-2.504579E-2,-6.180545E-3,3.6558807E-3,-7.6266164E-3,-1.5566281E-2,-3.4624036E-2,1.7160714E-2,-1.8025694E-2,2.9336546E-2,1.0054341E-2,7.696763E-3,-3.3415377E-2,-1.3667099E-2,-3.05583E-2,6.0482696E-3,3.174428E-2,-1.1273421E-3,3.2957684E-2,-6.4551495E-3,2.5747914E-2,2.485475E-2,-2.6157927E-2,1.468805E-2,3.2667987E-2,6.0697687E-3,-2.1182502E-2,-2.9420214E-2,-7.5571225E-3,2.2501405E-2,-4.3431036E-3,3.433423E-3,3.0192675E-2,-1.4432546E-2,2.3098549E-2,-2.6438374E-2,1.5801905E-2,-1.3321436E-2,-2.8313594E-2],"categories":[],"categories_nodes":[],"categories_segments":[],"categories_sizes":[],"default_left":[0,0,0,0,0,0,0,0,0,0,0,0,0,0,0,0,0,0,0,0,0,0,0,0,0,0,0,0,0,0,0,0,0,0,0,0,0,0,0,0,0,0,0,0,0,0,0,0,0,0,0,0,0,0,0,0,0,0,0,0,0,0,0,0,0,0,0,0,0,0,0,0,0,0,0,0,0,0,0,0,0,0,0,0,0,0,0,0,0,0,0,0,0,0,0,0,0,0,0,0,0,0,0,0,0,0,0,0,0,0,0,0,0,0,0,0,0,0,0,0,0,0,0,0,0,0,0,0,0],"id":5,"left_children":[1,3,5,7,9,11,13,15,17,19,21,23,25,27,29,31,33,35,37,39,41,-1,-1,43,45,47,49,51,53,55,57,59,61,63,65,67,69,71,73,-1,75,-1,-1,77,79,-1,81,-1,-1,-1,-1,83,85,87,-1,-1,89,-1,-1,91,-1,-1,-1,93,95,-1,-1,-1,-1,97,99,-1,101,103,-1,105,-1,107,109,111,113,-1,-1,-1,115,117,119,121,123,125,127,-1,-1,-1,-1,-1,-1,-1,-1,-1,-1,-1,-1,-1,-1,-1,-1,-1,-1,-1,-1,-1,-1,-1,-1,-1,-1,-1,-1,-1,-1,-1,-1,-1,-1,-1,-1,-1,-1],"loss_changes":[1.2804271E3,2.799926E2,2.8233765E2,6.3714966E1,2.6745956E1,1.8244855E2,1.4015092E2,6.371715E1,7.393524E1,1.1769098E1,1.1535721E0,3.609021E1,3.966896E1,2.7744358E1,2.8092445E1,1.7657234E1,8.831215E0,2.8621227E1,1.1001221E1,9.949364E0,9.981699E0,0E0,0E0,5.287094E1,2.6859741E0,5.593834E-1,1.2021494E0,8.980652E0,9.838905E0,1.9319145E1,6.123154E0,7.9817276E0,4.146202E0,6.638893E0,3.0072017E0,4.0808277E0,3.4613028E0,1.2104492E0,7.228323E0,0E0,3.2192106E0,0E0,0E0,2.203543E1,7.766344E1,0E0,1.6559167E0,0E0,0E0,0E0,0E0,5.793416E0,7.4727964E0,2.074765E1,0E0,0E0,1.5733948E0,0E0,0E0,7.171898E-1,0E0,0E0,0E0,4.075898E-1,6.6991425E-1,0E0,0E0,0E0,0E0,5.5831614E0,2.506199E-1,0E0,1.4544205E1,2.8567715E0,0E0,1.8731041E0,0E0,8.648834E0,8.642534E0,1.6105211E1,3.996277E-2,0E0,0E0,0E0,2.2881303E0,2.9992685E0,1.8285751E0,1.640152E0,2.212086E1,1.0566345E1,1.7147827E0,0E0,0E0,0E0,0E0,0E0,0E0,0E0,0E0,0E0,0E0,0E0,0E0,0E0,0E0,0E0,0E0,0E0,0E0,0E0,0E0,0E0,0E0,0E0,0E0,0E0,0E0,0E0,0E0,0E0,0E0,0E0,0E0,0E0,0E0,0E0,0E0,0E0,0E0],"parents":[2147483647,0,0,1,1,2,2,3,3,4,4,5,5,6,6,7,7,8,8,9,9,10,10,11,11,12,12,13,13,14,14,15,15,16,16,17,17,18,18,19,19,20,20,23,23,24,24,25,25,26,26,27,27,28,28,29,29,30,30,31,31,32,32,33,33,34,34,35,35,36,36,37,37,38,38,40,40,43,43,44,44,46,46,51,51,52,52,53,53,56,56,59,59,63,63,64,64,69,69,70,70,72,72,73,73,75,75,77,77,78,78,79,79,80,80,84,84,85,85,86,86,87,87,88,88,89,89,90,90],"right_children":[2,4,6,8,10,12,14,16,18,20,22,24,26,28,30,32,34,36,38,40,42,-1,-1,44,46,48,50,52,54,56,58,60,62,64,66,68,70,72,74,-1,76,-1,-1,78,80,-1,82,-1,-1,-1,-1,84,86,88,-1,-1,90,-1,-1,92,-1,-1,-1,94,96,-1,-1,-1,-1,98,100,-1,102,104,-1,106,-1,108,110,112,114,-1,-1,-1,116,118,120,122,124,126,128,-1,-1,-1,-1,-1,-1,-1,-1,-1,-1,-1,-1,-1,-1,-1,-1,-1,-1,-1,-1,-1,-1,-1,-1,-1,-1,-1,-1,-1,-1,-1,-1,-1,-1,-1,-1,-1,-1],"split_conditions":[5.0327927E-1,1.06089E-2,-7.6491736E-2,8.9967155E-1,6.613407E-1,2.551649E-1,1.6182162E-1,-3.281093E-1,-1.750699E-1,2.3803021E-1,4.8964778E-1,-5.21808E-1,-3.281093E-1,-4.6265063E-1,8.4055924E-1,-1.750699E-1,4.400226E0,5.6186195E-2,-4.6265063E-1,4.99568E-2,1.06662445E-1,3.5081416E-2,9.971864E-3,8.9967155E-1,2.4247488E-1,-6.1210267E-2,7.4946034E-1,7.061001E-1,8.4055924E-1,-4.2348057E-1,-5.21808E-1,-5.21808E-1,8.9352585E-2,-1.0146252E-1,8.6459166E-1,1.1222143E-1,3.102968E-1,-3.281093E-1,1.5683131E0,-2.2912877E-2,2.144474E-1,1.4312835E-2,-3.087286E-2,-3.281093E-1,-3.281093E-1,3.4909565E-2,-3.298951E-1,-3.15558E-2,-1.0252995E-2,4.0635476E-3,2.9818859E-2,1.181596E0,8.081852E-1,9.299785E-1,3.1177098E-2,2.575338E-2,1.7512582E-1,-8.7829735E-3,2.7136456E-2,-6.0754114E-1,2.2431724E-2,-4.373601E-3,3.0418653E-2,2.0510584E-1,-7.6491736E-2,-1.0408521E-2,2.1009583E-2,4.024325E-3,-3.2156046E-2,1.6999227E-1,4.3209377E-1,-3.6597047E-2,-2.652049E-1,3.63839E-1,1.5168352E-2,-7.660921E-1,-4.353213E-3,-6.649941E-1,8.258363E-1,-1.750699E-1,1.3775403E0,-4.3431036E-3,1.9964155E-2,2.5747914E-2,1.4402318E-1,7.4383485E-1,1.1428316E-1,-1.8357077E-1,3.5719628E0,6.495619E-2,5.3728545E-1,-2.504579E-2,-6.180545E-3,3.6558807E-3,-7.6266164E-3,-1.5566281E-2,-3.4624036E-2,1.7160714E-2,-1.8025694E-2,2.9336546E-2,1.0054341E-2,7.696763E-3,-3.3415377E-2,-1.3667099E-2,-3.05583E-2,6.0482696E-3,3.174428E-2,-1.1273421E-3,3.2957684E-2,-6.4551495E-3,2.5747914E-2,2.485475E-2,-2.6157927E-2,1.468805E-2,3.2667987E-2,6.0697687E-3,-2.1182502E-2,-2.9420214E-2,-7.5571225E-3,2.2501405E-2,-4.3431036E-3,3.433423E-3,3.0192675E-2,-1.4432546E-2,2.3098549E-2,-2.6438374E-2,1.5801905E-2,-1.3321436E-2,-2.8313594E-2],"split_indices":[12,11,2,1,11,13,13,2,4,2,2,11,2,11,12,4,8,12,11,12,13,0,0,1,13,9,12,12,12,9,11,11,12,9,9,2,12,2,10,0,13,0,0,2,2,0,10,0,0,0,0,2,12,2,0,0,2,0,0,10,0,0,0,13,2,0,0,0,0,12,12,0,2,2,0,10,0,9,12,4,7,0,0,0,13,9,13,10,2,10,12,0,0,0,0,0,0,0,0,0,0,0,0,0,0,0,0,0,0,0,0,0,0,0,0,0,0,0,0,0,0,0,0,0,0,0,0,0,0],"split_type":[0,0,0,0,0,0,0,0,0,0,0,0,0,0,0,0,0,0,0,0,0,0,0,0,0,0,0,0,0,0,0,0,0,0,0,0,0,0,0,0,0,0,0,0,0,0,0,0,0,0,0,0,0,0,0,0,0,0,0,0,0,0,0,0,0,0,0,0,0,0,0,0,0,0,0,0,0,0,0,0,0,0,0,0,0,0,0,0,0,0,0,0,0,0,0,0,0,0,0,0,0,0,0,0,0,0,0,0,0,0,0,0,0,0,0,0,0,0,0,0,0,0,0,0,0,0,0,0,0],"sum_hessian":[1.1168042E3,4.7657654E2,6.4022766E2,4.3090878E2,4.5667767E1,4.6330124E2,1.7692644E2,5.5944687E1,3.7496408E2,1.7922918E1,2.774485E1,4.3271872E2,3.0582516E1,8.929892E1,8.762752E1,2.2375166E1,3.356952E1,2.2150534E1,3.5281354E2,1.0949829E1,6.9730887E0,2.599759E1,1.7472595E0,1.6704121E2,2.6567752E2,2.5113188E1,5.46933E0,2.1435995E1,6.786292E1,8.06567E1,6.9708147E0,6.9821553E0,1.539301E1,3.0574387E1,2.9951339E0,7.710512E0,1.44400215E1,3.3018445E2,2.26291E1,1.4967461E0,9.453083E0,2.2462213E0,4.726867E0,1.23296646E2,4.3744564E1,2.6218524E2,3.4922578E0,2.3364365E1,1.7488219E0,1.2496315E0,4.219698E0,7.22427E0,1.4211724E1,4.429941E1,2.3563515E1,2.2378469E0,7.841885E1,2.2494073E0,4.7214074E0,5.4890776E0,1.4930776E0,1.2499007E0,1.414311E1,3.2493877E0,2.7324999E1,1.7490906E0,1.2460433E0,1.2494558E0,6.461056E0,6.2358007E0,8.204222E0,2.9661502E2,3.356943E1,2.1131134E1,1.4979666E0,8.203104E0,1.2499789E0,1.1006948E2,1.3227162E1,2.3406271E1,2.0338295E1,1.249974E0,2.2422836E0,3.9781597E0,3.2461102E0,1.146805E1,2.7436748E0,2.0608488E1,2.3690924E1,1.0213699E1,6.8205154E1,3.4898243E0,1.9992534E0,1.7498808E0,1.499507E0,3.2470531E0,2.4077946E1,4.488524E0,1.7472765E0,6.4564466E0,1.7477746E0,3.4947839E0,3.0074648E1,1.0685836E1,1.0445297E1,1.9987619E0,6.2043424E0,2.9952736E0,1.070742E2,9.249002E0,3.9781597E0,1.9898933E0,2.1416376E1,2.48028E0,1.7858015E1,1.9989911E0,1.2471192E0,6.218966E0,5.2490835E0,1.4937006E0,1.249974E0,1.2472359E0,1.9361254E1,1.373637E1,9.954554E0,7.7194204E0,2.494279E0,5.9951634E0,6.220999E1],"tree_param":{"num_deleted":"0","num_feature":"14","num_nodes":"129","size_leaf_vector":"1"}},{"base_weights":[9.468119E-4,-1.2179691E0,9.0858155E-1,-1.4391619E0,1.3280193E0,1.3116809E0,-1.4700352E-1,-2.8707287E-1,-1.5564694E0,4.4630855E-1,3.457845E-2,1.4759429E0,-9.8347414E-1,7.152476E-1,-1.0238044E0,-7.799356E-1,9.3815136E-1,-3.338885E-1,-1.69471E0,-6.4190584E-1,8.9237416E-1,1.1042955E0,1.7047887E0,-1.5007682E0,1.2556503E0,-2.507124E-1,1.0198505E0,-1.1876435E0,7.8241277E-1,1.60139E-1,-1.5140533E0,-1.2627127E-2,1.1695077E0,1.3524194E0,-1.3696867E0,-1.7613063E0,-7.125618E-1,-2.6314147E-4,-1.9007554E-2,-1.07719395E-2,1.2629044E0,1.4314581E0,1.7130269E-1,3.434291E-2,6.0332775E-1,-3.15439E-2,-1.3672019E-2,4.018567E-3,2.940238E-2,5.905494E-1,-6.890095E-1,7.1915364E-1,3.0668043E-2,2.5433876E-2,-1.2729744E0,-8.66235E-3,2.6739521E-2,-3.4033382E-1,2.8401945E-2,-3.4456782E-2,7.982954E-3,4.5922416E-1,1.372852E0,-4.325051E-3,2.993119E-2,1.5156168E-2,-1.5285212E0,-3.5997774E-2,-1.4157287E0,-9.1355705E-1,2.407166E-2,2.8318087E-2,4.54427E-3,1.5747348E0,2.1509661E-1,-1.0298982E0,1.5386294E0,-4.294908E-3,1.9705467E-2,2.5378695E-2,-3.429335E-1,-1.106507E0,3.878008E-1,1.4166368E0,8.051205E-2,-7.681211E-1,-1.3363898E0,-1.6773857E-2,1.696428E-2,2.421864E-2,-1.3249942E-2,9.250891E-3,3.093705E-2,-9.52817E-3,-3.3860385E-2,7.57893E-3,-3.2145567E-2,-2.449542E-2,-3.1061135E-3,1.4516731E-2,3.3590425E-2,-6.339091E-3,2.5378695E-2,2.4555577E-2,-2.5702743E-2,1.4302818E-2,3.2178186E-2,5.9894384E-3,-2.0960636E-2,-7.3224423E-3,-2.7868222E-2,2.2982704E-2,-2.1078955E-2,2.9718544E-2,3.1792738E-3,-1.4170235E-2,2.2713944E-2,-2.601288E-2,1.5585499E-2,-1.3097887E-2,-2.7815044E-2],"categories":[],"categories_nodes":[],"categories_segments":[],"categories_sizes":[],"default_left":[0,0,0,0,0,0,0,0,0,0,0,0,0,0,0,0,0,0,0,0,0,0,0,0,0,0,0,0,0,0,0,0,0,0,0,0,0,0,0,0,0,0,0,0,0,0,0,0,0,0,0,0,0,0,0,0,0,0,0,0,0,0,0,0,0,0,0,0,0,0,0,0,0,0,0,0,0,0,0,0,0,0,0,0,0,0,0,0,0,0,0,0,0,0,0,0,0,0,0,0,0,0,0,0,0,0,0,0,0,0,0,0,0,0,0,0,0,0,0,0,0],"id":6,"left_children":[1,3,5,7,9,11,13,15,17,19,-1,21,23,25,27,29,31,33,35,37,39,41,43,45,47,49,51,53,55,57,59,-1,61,63,65,67,69,-1,-1,-1,71,73,75,-1,77,-1,-1,-1,-1,79,81,83,-1,-1,85,-1,-1,87,-1,-1,-1,89,91,-1,-1,-1,93,-1,95,97,-1,-1,-1,99,101,103,105,-1,-1,-1,107,109,111,113,115,117,119,-1,-1,-1,-1,-1,-1,-1,-1,-1,-1,-1,-1,-1,-1,-1,-1,-1,-1,-1,-1,-1,-1,-1,-1,-1,-1,-1,-1,-1,-1,-1,-1,-1,-1],"loss_changes":[1.2340636E3,2.700229E2,2.7224713E2,5.881775E1,1.2864227E1,1.7592346E2,1.3499036E2,2.59432E1,6.666016E1,7.080077E0,0E0,3.4882263E1,3.8380714E1,2.6773247E1,2.7107346E1,2.116664E1,5.2521505E0,7.460589E1,2.2102661E1,8.562157E-1,5.943403E0,5.090599E1,2.5803223E0,5.4880524E-1,1.1653748E0,8.669552E0,9.508469E0,1.8722443E1,5.9445825E0,9.436914E0,7.526352E0,0E0,9.849243E-1,4.021084E0,1.0045624E1,1.9018555E0,1.0480036E1,0E0,0E0,0E0,9.7509956E-1,2.1260117E1,7.490681E1,0E0,1.6143337E0,0E0,0E0,0E0,0E0,5.636993E0,7.2600346E0,2.0029827E1,0E0,0E0,1.5112915E0,0E0,0E0,7.208665E0,0E0,0E0,0E0,4.1682396E0,5.82139E-1,0E0,0E0,0E0,3.4863396E0,0E0,1.3742882E1,5.1458454E0,0E0,0E0,0E0,8.629486E0,8.374298E0,1.5617498E1,8.0883026E-2,0E0,0E0,0E0,2.2364008E0,1.8708124E0,6.683702E0,1.6422081E0,2.13417E1,1.0240576E1,1.6481094E0,0E0,0E0,0E0,0E0,0E0,0E0,0E0,0E0,0E0,0E0,0E0,0E0,0E0,0E0,0E0,0E0,0E0,0E0,0E0,0E0,0E0,0E0,0E0,0E0,0E0,0E0,0E0,0E0,0E0,0E0,0E0,0E0,0E0,0E0],"parents":[2147483647,0,0,1,1,2,2,3,3,4,4,5,5,6,6,7,7,8,8,9,9,11,11,12,12,13,13,14,14,15,15,16,16,17,17,18,18,19,19,20,20,21,21,22,22,23,23,24,24,25,25,26,26,27,27,28,28,29,29,30,30,32,32,33,33,34,34,35,35,36,36,40,40,41,41,42,42,44,44,49,49,50,50,51,51,54,54,57,57,61,61,62,62,66,66,68,68,69,69,73,73,74,74,75,75,76,76,80,80,81,81,82,82,83,83,84,84,85,85,86,86],"right_children":[2,4,6,8,10,12,14,16,18,20,-1,22,24,26,28,30,32,34,36,38,40,42,44,46,48,50,52,54,56,58,60,-1,62,64,66,68,70,-1,-1,-1,72,74,76,-1,78,-1,-1,-1,-1,80,82,84,-1,-1,86,-1,-1,88,-1,-1,-1,90,92,-1,-1,-1,94,-1,96,98,-1,-1,-1,100,102,104,106,-1,-1,-1,108,110,112,114,116,118,120,-1,-1,-1,-1,-1,-1,-1,-1,-1,-1,-1,-1,-1,-1,-1,-1,-1,-1,-1,-1,-1,-1,-1,-1,-1,-1,-1,-1,-1,-1,-1,-1,-1,-1],"split_conditions":[5.0327927E-1,1.8808122E-1,-7.6491736E-2,-1.750699E-1,8.3881307E-1,2.551649E-1,1.6182162E-1,1.3775403E0,8.9967155E-1,8.9967155E-1,3.457845E-2,-5.21808E-1,-3.281093E-1,-4.6265063E-1,8.4055924E-1,3.63839E-1,6.464342E-2,-3.281093E-1,-4.0349317E-1,4.8964778E-1,7.2924756E-2,8.9967155E-1,2.4247488E-1,-1.0146252E-1,7.4946034E-1,7.061001E-1,8.4055924E-1,-4.2348057E-1,-5.21808E-1,-5.21808E-1,4.400226E0,-1.2627127E-2,2.6807016E-1,8.9352585E-2,8.41463E-2,-3.281093E-1,1.5683131E0,-2.6314147E-4,-1.9007554E-2,-1.07719395E-2,2.3803021E-1,-3.281093E-1,-3.281093E-1,3.434291E-2,-3.298951E-1,-3.15439E-2,-1.3672019E-2,4.018567E-3,2.940238E-2,1.181596E0,7.45276E-1,9.299785E-1,3.0668043E-2,2.5433876E-2,1.7512582E-1,-8.66235E-3,2.6739521E-2,8.9967155E-1,2.8401945E-2,-3.4456782E-2,7.982954E-3,1.6387296E-1,-5.149076E-1,-4.325051E-3,2.993119E-2,1.5156168E-2,-2.652049E-1,-3.5997774E-2,-2.652049E-1,-4.854854E-2,2.407166E-2,2.8318087E-2,4.54427E-3,-1.750699E-1,8.258363E-1,-1.750699E-1,-3.0272382E-1,-4.294908E-3,1.9705467E-2,2.5378695E-2,1.4402318E-1,-1.750699E-1,1.4891401E-1,1.5027794E-1,3.5719628E0,6.495619E-2,5.3728545E-1,-1.6773857E-2,1.696428E-2,2.421864E-2,-1.3249942E-2,9.250891E-3,3.093705E-2,-9.52817E-3,-3.3860385E-2,7.57893E-3,-3.2145567E-2,-2.449542E-2,-3.1061135E-3,1.4516731E-2,3.3590425E-2,-6.339091E-3,2.5378695E-2,2.4555577E-2,-2.5702743E-2,1.4302818E-2,3.2178186E-2,5.9894384E-3,-2.0960636E-2,-7.3224423E-3,-2.7868222E-2,2.2982704E-2,-2.1078955E-2,2.9718544E-2,3.1792738E-3,-1.4170235E-2,2.2713944E-2,-2.601288E-2,1.5585499E-2,-1.3097887E-2,-2.7815044E-2],"split_indices":[12,11,2,4,11,13,13,7,1,1,0,11,2,11,12,2,12,2,11,2,12,1,13,9,12,12,12,9,11,11,8,0,12,12,13,2,10,0,0,0,2,2,2,0,10,0,0,0,0,2,12,2,0,0,2,0,0,1,0,0,0,12,10,0,0,0,2,0,2,11,0,0,0,4,12,4,9,0,0,0,13,4,13,13,2,10,12,0,0,0,0,0,0,0,0,0,0,0,0,0,0,0,0,0,0,0,0,0,0,0,0,0,0,0,0,0,0,0,0,0,0],"split_type":[0,0,0,0,0,0,0,0,0,0,0,0,0,0,0,0,0,0,0,0,0,0,0,0,0,0,0,0,0,0,0,0,0,0,0,0,0,0,0,0,0,0,0,0,0,0,0,0,0,0,0,0,0,0,0,0,0,0,0,0,0,0,0,0,0,0,0,0,0,0,0,0,0,0,0,0,0,0,0,0,0,0,0,0,0,0,0,0,0,0,0,0,0,0,0,0,0,0,0,0,0,0,0,0,0,0,0,0,0,0,0,0,0,0,0,0,0,0,0,0,0],"sum_hessian":[1.1134563E3,4.750892E2,6.3836707E2,4.3751324E2,3.757596E1,4.617823E2,1.7658478E2,4.075007E1,3.9676318E2,1.2405554E1,2.5170404E1,4.3127344E2,3.0508867E1,8.9123985E1,8.7460785E1,2.9319391E1,1.143068E1,4.0652573E1,3.5611063E2,3.4790587E0,8.926495E0,1.6657684E2,2.646966E2,2.5051168E1,5.457698E0,2.1408873E1,6.771511E1,8.050113E1,6.959659E0,1.3199119E1,1.6120272E1,1.2463797E0,1.01843E1,1.535254E1,2.5300034E1,3.327543E2,2.3356314E1,1.4882524E0,1.9908065E0,1.742696E0,7.183799E0,1.22934456E2,4.3642387E1,2.612072E2,3.489385E0,2.205808E1,2.9930892E0,1.2495391E0,4.2081585E0,7.2143564E0,1.4194515E1,4.4222263E1,2.3492847E1,2.233247E0,7.826788E1,2.2490435E0,4.7106156E0,9.969128E0,3.2299907E0,1.462388E1,1.4963912E0,2.9919043E0,7.192396E0,1.2498772E0,1.4102663E1,1.4956479E0,2.3804386E1,2.95549E2,3.720529E1,2.161249E1,1.7438246E0,5.939291E0,1.2445078E0,1.09716225E2,1.3218231E1,2.3363903E1,2.0278482E1,1.2499433E0,2.2394414E0,3.9699442E0,3.2444122E0,1.020881E1,3.9857054E0,2.0555103E1,2.366716E1,1.019751E1,6.807037E1,7.231365E0,2.7377627E0,1.7437925E0,1.2481116E0,1.7412271E0,5.451169E0,3.7453911E0,2.0058994E1,3.4936938E0,3.3711597E1,1.4887046E1,6.725444E0,1.2926075E1,9.679015E1,9.248287E0,3.9699442E0,1.9860756E0,2.1377829E1,2.4733348E0,1.780515E1,1.9987001E0,1.2457122E0,3.4868252E0,6.721985E0,2.741158E0,1.2445476E0,1.9309757E1,1.2453451E0,1.3729415E1,9.937745E0,7.7052703E0,2.492239E0,5.99263E0,6.2077744E1],"tree_param":{"num_deleted":"0","num_feature":"14","num_nodes":"121","size_leaf_vector":"1"}},{"base_weights":[1.1161433E-3,-1.1979312E0,8.9371026E-1,-1.4395852E0,1.0619159E0,1.2906464E0,-1.441462E-1,-4.65853E-1,-1.5835369E0,1.259456E-1,1.6434563E0,1.4523798E0,-9.668213E-1,7.0304644E-1,-1.0056397E0,7.761281E-1,-1.2926527E0,1.2724969E-1,-1.691371E0,7.298582E-1,-7.946941E-1,3.402442E-2,9.6114855E-3,1.0863504E0,1.6779891E0,-1.4766072E0,1.238284E0,-2.4703446E-1,1.0029895E0,-1.1668234E0,7.7028763E-1,-4.5663044E-1,1.3307217E0,-1.4450972E0,2.307821E-1,-1.2857862E0,9.149704E-1,-1.738403E0,-9.629749E-1,-2.25682E-2,1.1046548E0,1.4130887E-2,-3.0174447E-2,1.4081007E0,1.6934788E-1,3.3803355E-2,5.9513545E-1,-3.1035459E-2,-1.3473809E-2,3.974105E-3,2.9001223E-2,5.808198E-1,-6.781918E-1,7.070832E-1,3.017964E-2,2.512375E-2,-1.250961E0,-8.543605E-3,2.6355652E-2,-9.813501E-1,2.1877581E-2,-4.277065E-3,2.9462773E-2,-8.929331E-2,-1.5983253E0,-1.0168272E-2,2.0665249E-2,3.8983836E-3,-3.1223502E-2,2.9894534E-1,1.3007094E0,-3.5429247E-2,-1.4039302E0,-1.1121782E0,1.4824904E-2,1.3076279E0,-4.2704414E-3,1.54935E0,2.122949E-1,-1.0114124E0,1.5149168E0,-4.247267E-3,1.9452646E-2,2.5020823E-2,-3.3976498E-1,-1.0082035E0,6.013036E-1,1.393787E0,7.9342216E-2,-7.5497574E-1,-1.3132635E0,-2.4447571E-2,-5.8767605E-3,3.8763096E-3,-7.3023913E-3,-1.5221791E-2,-3.3536144E-2,1.6718362E-2,-1.7639598E-2,2.8513769E-2,9.782527E-3,7.4630543E-3,-3.233813E-2,-1.3044726E-2,-2.9698579E-2,5.8671916E-3,3.098471E-2,1.4262055E-2,3.3057638E-2,-6.225223E-3,2.5020823E-2,6.683422E-3,-2.9312579E-2,1.411461E-2,3.1677764E-2,5.9102396E-3,-2.0743622E-2,-2.8652389E-2,-7.161643E-3,2.200296E-2,-4.3546665E-3,3.0682424E-2,1.1329895E-2,-1.3913905E-2,2.2340527E-2,-2.56014E-2,1.5373333E-2,-1.2878981E-2,-2.7334811E-2],"categories":[],"categories_nodes":[],"categories_segments":[],"categories_sizes":[],"default_left":[0,0,0,0,0,0,0,0,0,0,0,0,0,0,0,0,0,0,0,0,0,0,0,0,0,0,0,0,0,0,0,0,0,0,0,0,0,0,0,0,0,0,0,0,0,0,0,0,0,0,0,0,0,0,0,0,0,0,0,0,0,0,0,0,0,0,0,0,0,0,0,0,0,0,0,0,0,0,0,0,0,0,0,0,0,0,0,0,0,0,0,0,0,0,0,0,0,0,0,0,0,0,0,0,0,0,0,0,0,0,0,0,0,0,0,0,0,0,0,0,0,0,0,0,0,0,0,0,0],"id":7,"left_children":[1,3,5,7,9,11,13,15,17,19,21,23,25,27,29,31,33,35,37,39,41,-1,-1,43,45,47,49,51,53,55,57,59,61,63,65,67,69,71,73,-1,75,-1,-1,77,79,-1,81,-1,-1,-1,-1,83,85,87,-1,-1,89,-1,-1,91,-1,-1,-1,93,95,-1,-1,-1,-1,97,99,-1,101,103,-1,105,-1,107,109,111,113,-1,-1,-1,115,117,119,121,123,125,127,-1,-1,-1,-1,-1,-1,-1,-1,-1,-1,-1,-1,-1,-1,-1,-1,-1,-1,-1,-1,-1,-1,-1,-1,-1,-1,-1,-1,-1,-1,-1,-1,-1,-1,-1,-1,-1,-1],"loss_changes":[1.1897362E3,2.6058875E2,2.6270874E2,5.9392334E1,2.5050056E1,1.6973871E2,1.3003276E2,5.919287E1,6.908429E1,1.1068871E1,1.0993805E0,3.3738342E1,3.715281E1,2.5874416E1,2.6165367E1,1.6518322E1,8.321339E0,2.684997E1,1.0358887E1,9.54398E0,9.589679E0,0E0,0E0,4.90484E1,2.4834595E0,5.224838E-1,1.1306677E0,8.382283E0,9.19632E0,1.8149925E1,5.772998E0,7.5541334E0,3.902048E0,6.3813477E0,2.892736E0,3.8403091E0,3.269102E0,1.147644E0,6.8115673E0,0E0,3.066945E0,0E0,0E0,2.0534897E1,7.22738E1,0E0,1.5740434E0,0E0,0E0,0E0,0E0,5.4862814E0,7.014887E0,1.9345608E1,0E0,0E0,1.4525604E0,0E0,0E0,7.143874E-1,0E0,0E0,0E0,4.024827E-1,5.738678E-1,0E0,0E0,0E0,0E0,5.3194103E0,2.3256016E-1,0E0,1.3617783E1,2.8118896E0,0E0,1.7925243E0,0E0,8.372192E0,8.116297E0,1.5350557E1,6.599045E-2,0E0,0E0,0E0,2.1861157E0,2.9192152E0,1.7669331E0,1.6263924E0,2.059359E1,9.927526E0,1.586525E0,0E0,0E0,0E0,0E0,0E0,0E0,0E0,0E0,0E0,0E0,0E0,0E0,0E0,0E0,0E0,0E0,0E0,0E0,0E0,0E0,0E0,0E0,0E0,0E0,0E0,0E0,0E0,0E0,0E0,0E0,0E0,0E0,0E0,0E0,0E0,0E0,0E0,0E0],"parents":[2147483647,0,0,1,1,2,2,3,3,4,4,5,5,6,6,7,7,8,8,9,9,10,10,11,11,12,12,13,13,14,14,15,15,16,16,17,17,18,18,19,19,20,20,23,23,24,24,25,25,26,26,27,27,28,28,29,29,30,30,31,31,32,32,33,33,34,34,35,35,36,36,37,37,38,38,40,40,43,43,44,44,46,46,51,51,52,52,53,53,56,56,59,59,63,63,64,64,69,69,70,70,72,72,73,73,75,75,77,77,78,78,79,79,80,80,84,84,85,85,86,86,87,87,88,88,89,89,90,90],"right_children":[2,4,6,8,10,12,14,16,18,20,22,24,26,28,30,32,34,36,38,40,42,-1,-1,44,46,48,50,52,54,56,58,60,62,64,66,68,70,72,74,-1,76,-1,-1,78,80,-1,82,-1,-1,-1,-1,84,86,88,-1,-1,90,-1,-1,92,-1,-1,-1,94,96,-1,-1,-1,-1,98,100,-1,102,104,-1,106,-1,108,110,112,114,-1,-1,-1,116,118,120,122,124,126,128,-1,-1,-1,-1,-1,-1,-1,-1,-1,-1,-1,-1,-1,-1,-1,-1,-1,-1,-1,-1,-1,-1,-1,-1,-1,-1,-1,-1,-1,-1,-1,-1,-1,-1,-1,-1,-1,-1],"split_conditions":[5.0327927E-1,1.06089E-2,-7.6491736E-2,8.9967155E-1,6.613407E-1,2.551649E-1,1.6182162E-1,-3.281093E-1,-1.750699E-1,2.3803021E-1,4.8964778E-1,-5.21808E-1,-3.281093E-1,-4.6265063E-1,8.4055924E-1,-1.750699E-1,4.400226E0,5.6186195E-2,-4.6265063E-1,4.99568E-2,1.06662445E-1,3.402442E-2,9.6114855E-3,8.9967155E-1,2.4247488E-1,-1.0146252E-1,7.4946034E-1,7.061001E-1,8.4055924E-1,-4.2348057E-1,-5.21808E-1,-5.21808E-1,8.9352585E-2,-1.0146252E-1,8.6459166E-1,1.1222143E-1,3.102968E-1,-3.281093E-1,1.5683131E0,-2.25682E-2,2.144474E-1,1.4130887E-2,-3.0174447E-2,-3.281093E-1,-3.281093E-1,3.3803355E-2,-3.298951E-1,-3.1035459E-2,-1.3473809E-2,3.974105E-3,2.9001223E-2,1.181596E0,8.081852E-1,9.299785E-1,3.017964E-2,2.512375E-2,1.7512582E-1,-8.543605E-3,2.6355652E-2,-6.0754114E-1,2.1877581E-2,-4.277065E-3,2.9462773E-2,-1.8196703E-1,-7.6491736E-2,-1.0168272E-2,2.0665249E-2,3.8983836E-3,-3.1223502E-2,1.6999227E-1,4.3209377E-1,-3.5429247E-2,-2.652049E-1,3.63839E-1,1.4824904E-2,-7.660921E-1,-4.2704414E-3,-1.750699E-1,8.258363E-1,2.0263821E-1,-3.0272382E-1,-4.247267E-3,1.9452646E-2,2.5020823E-2,1.4402318E-1,7.4383485E-1,1.1428316E-1,1.3085734E0,3.5719628E0,6.495619E-2,5.3728545E-1,-2.4447571E-2,-5.8767605E-3,3.8763096E-3,-7.3023913E-3,-1.5221791E-2,-3.3536144E-2,1.6718362E-2,-1.7639598E-2,2.8513769E-2,9.782527E-3,7.4630543E-3,-3.233813E-2,-1.3044726E-2,-2.9698579E-2,5.8671916E-3,3.098471E-2,1.4262055E-2,3.3057638E-2,-6.225223E-3,2.5020823E-2,6.683422E-3,-2.9312579E-2,1.411461E-2,3.1677764E-2,5.9102396E-3,-2.0743622E-2,-2.8652389E-2,-7.161643E-3,2.200296E-2,-4.3546665E-3,3.0682424E-2,1.1329895E-2,-1.3913905E-2,2.2340527E-2,-2.56014E-2,1.5373333E-2,-1.2878981E-2,-2.7334811E-2],"split_indices":[12,11,2,1,11,13,13,2,4,2,2,11,2,11,12,4,8,12,11,12,13,0,0,1,13,9,12,12,12,9,11,11,12,9,9,2,12,2,10,0,13,0,0,2,2,0,10,0,0,0,0,2,12,2,0,0,2,0,0,10,0,0,0,9,2,0,0,0,0,12,12,0,2,2,0,10,0,4,12,13,9,0,0,0,13,9,13,4,2,10,12,0,0,0,0,0,0,0,0,0,0,0,0,0,0,0,0,0,0,0,0,0,0,0,0,0,0,0,0,0,0,0,0,0,0,0,0,0,0],"split_type":[0,0,0,0,0,0,0,0,0,0,0,0,0,0,0,0,0,0,0,0,0,0,0,0,0,0,0,0,0,0,0,0,0,0,0,0,0,0,0,0,0,0,0,0,0,0,0,0,0,0,0,0,0,0,0,0,0,0,0,0,0,0,0,0,0,0,0,0,0,0,0,0,0,0,0,0,0,0,0,0,0,0,0,0,0,0,0,0,0,0,0,0,0,0,0,0,0,0,0,0,0,0,0,0,0,0,0,0,0,0,0,0,0,0,0,0,0,0,0,0,0,0,0,0,0,0,0,0,0],"sum_hessian":[1.1096299E3,4.733812E2,6.3624866E2,4.279788E2,4.5402416E1,4.6005392E2,1.7619475E2,5.566698E1,3.7231183E2,1.7865328E1,2.7537086E1,4.2963025E2,3.0423681E1,8.892744E1,8.726732E1,2.227211E1,3.3394867E1,2.2065342E1,3.5024646E2,1.0913572E1,6.9517555E0,2.579292E1,1.7441669E0,1.6604816E2,2.635821E2,2.497924E1,5.444441E0,2.1380453E1,6.754698E1,8.03204E1,6.9469275E0,6.965574E0,1.5306537E1,3.0403887E1,2.9909823E0,7.6715713E0,1.439377E1,3.2770047E2,2.2546017E1,1.4942496E0,9.419323E0,2.244079E0,4.7076764E0,1.2252281E2,4.352534E1,2.6009598E2,3.486106E0,2.1988132E1,2.991108E0,1.2494377E0,4.195003E0,7.2030125E0,1.4177441E1,4.4134422E1,2.3412558E1,2.2279937E0,7.80924E1,2.2485995E0,4.698328E0,5.4785986E0,1.4869753E0,1.2498423E0,1.4056694E1,3.2479415E0,2.7155945E1,1.7476249E0,1.2433574E0,1.2488713E0,6.4227E0,6.2259398E0,8.16783E0,2.9431412E2,3.338634E1,2.105046E1,1.4955564E0,8.169399E0,1.2499232E0,1.0931483E2,1.3207984E1,2.331466E1,2.0210684E1,1.2499013E0,2.2362044E0,3.9605877E0,3.2424247E0,1.1439068E1,2.7383723E0,2.049454E1,2.3639883E1,1.0178691E1,6.791371E1,3.4804475E0,1.9981513E0,1.7495384E0,1.4984032E0,3.2442577E0,2.3911688E1,4.4806943E0,1.7452451E0,6.422176E0,1.7456546E0,3.49252E0,2.989382E1,1.0654065E1,1.0396395E1,1.9976152E0,6.1717844E0,1.291176E1,9.640307E1,9.247396E0,3.9605877E0,5.950634E0,1.7364025E1,2.4695616E0,1.7741121E1,1.9983771E0,1.2440476E0,6.192697E0,5.2463713E0,1.4885384E0,1.2498338E0,1.6791754E1,3.7027853E0,1.3721202E1,9.918681E0,7.688766E0,2.489925E0,5.9896235E0,6.1924084E1],"tree_param":{"num_deleted":"0","num_feature":"14","num_nodes":"129","size_leaf_vector":"1"}},{"base_weights":[1.2139657E-3,-1.1789745E0,8.794296E-1,-1.4169468E0,1.045248E0,1.2704492E0,-1.41245E-1,-4.583509E-1,-1.5588398E0,1.2338319E-1,1.6192008E0,1.4297638E0,-9.507928E-1,6.9150716E-1,-9.8808455E-1,7.6337624E-1,-1.2719874E0,1.2541121E-1,-1.6652321E0,7.176558E-1,-7.8240734E-1,3.3524368E-2,9.492476E-3,1.0689238E0,1.6524321E0,-1.4533856E0,1.2214715E0,-2.4283496E-1,9.867983E-1,-1.14671E0,7.585026E-1,-4.4915313E-1,1.3098093E0,-1.4226049E0,2.289484E-1,-1.2666811E0,9.006792E-1,-1.7117411E0,-9.4679993E-1,-2.231833E-2,1.0881325E0,1.3942222E-2,-2.9752094E-2,1.3856736E0,1.6695257E-1,3.3288985E-2,5.8710974E-1,-3.0056922E-2,-9.785623E-3,3.930153E-3,2.8614532E-2,5.713435E-1,-6.6681844E-1,6.9555163E-1,2.9710535E-2,2.482257E-2,-1.2296972E0,-8.426695E-3,2.5984142E-2,-9.6749735E-1,2.1644127E-2,-4.2296327E-3,2.901219E-2,-8.832018E-2,-1.5739272E0,-1.0041016E-2,2.0454606E-2,3.855303E-3,-3.078065E-2,2.9302928E-1,1.2819866E0,-3.488925E-2,-1.3811799E0,-1.0941538E0,1.4654277E-2,1.2887696E0,-4.2230813E-3,1.5250331E0,2.0955026E-1,-9.9408495E-1,1.4921479E0,-4.2001754E-3,1.9205472E-2,2.4673712E-2,-3.3665022E-1,-1.0734499E0,3.806641E-1,1.3720385E0,7.820124E-2,-1.4599459E0,-1.0632743E0,-2.2641638E-2,-3.0589257E-3,3.8527846E-3,-7.244081E-3,-1.4997063E-2,-3.302773E-2,1.9880911E-2,-1.2468197E-2,2.8101504E-2,9.661002E-3,7.3490846E-3,-3.1828955E-2,-1.2820331E-2,-2.9241597E-2,5.7897144E-3,3.054893E-2,-1.6854395E-3,3.1416632E-2,-6.1135027E-3,2.4673712E-2,2.4186363E-2,-2.4882874E-2,1.3748128E-2,3.1228164E-2,5.8321534E-3,-2.0531293E-2,-6.941248E-3,-2.713526E-2,2.2542126E-2,-2.0671157E-2,7.081642E-3,2.9442847E-2,-1.36633385E-2,2.1977706E-2,-1.7477617E-2,-3.1467292E-2,2.2360673E-2,-2.3088425E-2],"categories":[],"categories_nodes":[],"categories_segments":[],"categories_sizes":[],"default_left":[0,0,0,0,0,0,0,0,0,0,0,0,0,0,0,0,0,0,0,0,0,0,0,0,0,0,0,0,0,0,0,0,0,0,0,0,0,0,0,0,0,0,0,0,0,0,0,0,0,0,0,0,0,0,0,0,0,0,0,0,0,0,0,0,0,0,0,0,0,0,0,0,0,0,0,0,0,0,0,0,0,0,0,0,0,0,0,0,0,0,0,0,0,0,0,0,0,0,0,0,0,0,0,0,0,0,0,0,0,0,0,0,0,0,0,0,0,0,0,0,0,0,0,0,0,0,0,0,0],"id":8,"left_children":[1,3,5,7,9,11,13,15,17,19,21,23,25,27,29,31,33,35,37,39,41,-1,-1,43,45,47,49,51,53,55,57,59,61,63,65,67,69,71,73,-1,75,-1,-1,77,79,-1,81,-1,-1,-1,-1,83,85,87,-1,-1,89,-1,-1,91,-1,-1,-1,93,95,-1,-1,-1,-1,97,99,-1,101,103,-1,105,-1,107,109,111,113,-1,-1,-1,115,117,119,121,123,125,127,-1,-1,-1,-1,-1,-1,-1,-1,-1,-1,-1,-1,-1,-1,-1,-1,-1,-1,-1,-1,-1,-1,-1,-1,-1,-1,-1,-1,-1,-1,-1,-1,-1,-1,-1,-1,-1,-1],"loss_changes":[1.1477133E3,2.5154816E2,2.53568E2,5.7393433E1,2.4264832E1,1.638371E2,1.25333374E2,5.7133522E1,6.681586E1,1.0694243E1,1.0587158E0,3.26875E1,3.5977577E1,2.4990295E1,2.5263992E1,1.5966778E1,8.077244E0,2.598E1,1.0063843E1,9.289881E0,9.316922E0,0E0,0E0,4.732808E1,2.394104E0,4.996338E-1,1.0978756E0,8.094601E0,8.896591E0,1.7600182E1,5.608018E0,7.361589E0,3.788643E0,6.180729E0,2.8277557E0,3.7341642E0,3.1849232E0,1.1296387E0,6.6173935E0,0E0,2.982274E0,0E0,0E0,1.9851196E1,6.980073E1,0E0,1.5349938E0,0E0,0E0,0E0,0E0,5.340993E0,6.8638043E0,1.870238E1,0E0,0E0,1.4707794E0,0E0,0E0,6.944194E-1,0E0,0E0,0E0,3.9663312E-1,5.5236816E-1,0E0,0E0,0E0,0E0,5.2589583E0,2.2067547E-1,0E0,1.3186317E1,2.7314777E0,0E0,1.7392883E0,0E0,8.2300415E0,7.8680363E0,1.4875298E1,1.0467911E-1,0E0,0E0,0E0,2.1372263E0,1.8296862E0,6.418019E0,1.662468E0,1.9875011E1,6.470642E-1,1.112722E1,0E0,0E0,0E0,0E0,0E0,0E0,0E0,0E0,0E0,0E0,0E0,0E0,0E0,0E0,0E0,0E0,0E0,0E0,0E0,0E0,0E0,0E0,0E0,0E0,0E0,0E0,0E0,0E0,0E0,0E0,0E0,0E0,0E0,0E0,0E0,0E0,0E0,0E0],"parents":[2147483647,0,0,1,1,2,2,3,3,4,4,5,5,6,6,7,7,8,8,9,9,10,10,11,11,12,12,13,13,14,14,15,15,16,16,17,17,18,18,19,19,20,20,23,23,24,24,25,25,26,26,27,27,28,28,29,29,30,30,31,31,32,32,33,33,34,34,35,35,36,36,37,37,38,38,40,40,43,43,44,44,46,46,51,51,52,52,53,53,56,56,59,59,63,63,64,64,69,69,70,70,72,72,73,73,75,75,77,77,78,78,79,79,80,80,84,84,85,85,86,86,87,87,88,88,89,89,90,90],"right_children":[2,4,6,8,10,12,14,16,18,20,22,24,26,28,30,32,34,36,38,40,42,-1,-1,44,46,48,50,52,54,56,58,60,62,64,66,68,70,72,74,-1,76,-1,-1,78,80,-1,82,-1,-1,-1,-1,84,86,88,-1,-1,90,-1,-1,92,-1,-1,-1,94,96,-1,-1,-1,-1,98,100,-1,102,104,-1,106,-1,108,110,112,114,-1,-1,-1,116,118,120,122,124,126,128,-1,-1,-1,-1,-1,-1,-1,-1,-1,-1,-1,-1,-1,-1,-1,-1,-1,-1,-1,-1,-1,-1,-1,-1,-1,-1,-1,-1,-1,-1,-1,-1,-1,-1,-1,-1,-1,-1],"split_conditions":[5.0327927E-1,1.06089E-2,-7.6491736E-2,8.9967155E-1,6.613407E-1,2.551649E-1,1.6182162E-1,-3.281093E-1,-1.750699E-1,2.3803021E-1,4.8964778E-1,-5.21808E-1,-3.281093E-1,-4.6265063E-1,8.4055924E-1,-1.750699E-1,4.400226E0,5.6186195E-2,-4.6265063E-1,4.99568E-2,1.06662445E-1,3.3524368E-2,9.492476E-3,8.9967155E-1,2.4247488E-1,-6.1210267E-2,7.4946034E-1,7.061001E-1,8.4055924E-1,-4.2348057E-1,-5.21808E-1,-5.21808E-1,8.9352585E-2,-1.0146252E-1,8.6459166E-1,1.1222143E-1,3.102968E-1,-3.281093E-1,1.5683131E0,-2.231833E-2,2.144474E-1,1.3942222E-2,-2.9752094E-2,-3.281093E-1,-3.281093E-1,3.3288985E-2,-3.298951E-1,-3.0056922E-2,-9.785623E-3,3.930153E-3,2.8614532E-2,1.181596E0,7.45276E-1,9.299785E-1,2.9710535E-2,2.482257E-2,1.9046225E-1,-8.426695E-3,2.5984142E-2,4.4111532E-1,2.1644127E-2,-4.2296327E-3,2.901219E-2,2.0510584E-1,-7.6491736E-2,-1.0041016E-2,2.0454606E-2,3.855303E-3,-3.078065E-2,-1.3587348E-2,4.3209377E-1,-3.488925E-2,-2.652049E-1,3.63839E-1,1.4654277E-2,-7.660921E-1,-4.2230813E-3,-6.649941E-1,8.258363E-1,-1.750699E-1,1.3775403E0,-4.2001754E-3,1.9205472E-2,2.4673712E-2,1.4402318E-1,-1.750699E-1,1.4891401E-1,2.0857517E-1,3.5719628E0,-1.750699E-1,1.1222143E-1,-2.2641638E-2,-3.0589257E-3,3.8527846E-3,-7.244081E-3,-1.4997063E-2,-3.302773E-2,1.9880911E-2,-1.2468197E-2,2.8101504E-2,9.661002E-3,7.3490846E-3,-3.1828955E-2,-1.2820331E-2,-2.9241597E-2,5.7897144E-3,3.054893E-2,-1.6854395E-3,3.1416632E-2,-6.1135027E-3,2.4673712E-2,2.4186363E-2,-2.4882874E-2,1.3748128E-2,3.1228164E-2,5.8321534E-3,-2.0531293E-2,-6.941248E-3,-2.713526E-2,2.2542126E-2,-2.0671157E-2,7.081642E-3,2.9442847E-2,-1.36633385E-2,2.1977706E-2,-1.7477617E-2,-3.1467292E-2,2.2360673E-2,-2.3088425E-2],"split_indices":[12,11,2,1,11,13,13,2,4,2,2,11,2,11,12,4,8,12,11,12,13,0,0,1,13,9,12,12,12,9,11,11,12,9,9,2,12,2,10,0,13,0,0,2,2,0,10,0,0,0,0,2,12,2,0,0,10,0,0,12,0,0,0,13,2,0,0,0,0,2,12,0,2,2,0,10,0,9,12,4,7,0,0,0,13,4,13,10,2,4,2,0,0,0,0,0,0,0,0,0,0,0,0,0,0,0,0,0,0,0,0,0,0,0,0,0,0,0,0,0,0,0,0,0,0,0,0,0,0],"split_type":[0,0,0,0,0,0,0,0,0,0,0,0,0,0,0,0,0,0,0,0,0,0,0,0,0,0,0,0,0,0,0,0,0,0,0,0,0,0,0,0,0,0,0,0,0,0,0,0,0,0,0,0,0,0,0,0,0,0,0,0,0,0,0,0,0,0,0,0,0,0,0,0,0,0,0,0,0,0,0,0,0,0,0,0,0,0,0,0,0,0,0,0,0,0,0,0,0,0,0,0,0,0,0,0,0,0,0,0,0,0,0,0,0,0,0,0,0,0,0,0,0,0,0,0,0,0,0,0,0],"sum_hessian":[1.1053394E3,4.7144562E2,6.338938E2,4.2620804E2,4.5237568E1,4.5813712E2,1.7575665E2,5.5499146E1,3.707089E2,1.7824074E1,2.7413494E1,4.2780957E2,3.032755E1,8.870788E1,8.704878E1,2.2210476E1,3.328867E1,2.201529E1,3.486936E2,1.0888217E1,6.9358573E0,2.5670235E1,1.7432598E0,1.654668E2,2.6234277E2,2.4897903E1,5.429647E0,2.1345472E1,6.7362404E1,8.011607E1,6.932706E0,6.9551334E0,1.5255342E1,3.0300257E1,2.9884136E0,7.648168E0,1.4367122E1,3.261942E2,2.2499374E1,1.4919771E0,9.396239E0,2.2425041E0,4.693353E0,1.22064514E2,4.340228E1,2.5886035E2,3.4824398E0,2.3151388E1,1.7465153E0,1.2493274E0,4.1803193E0,7.19031E0,1.4155163E1,4.4039146E1,2.3323257E1,2.2221181E0,7.789395E1,2.2480793E0,4.6846266E0,5.471362E0,1.4837711E0,1.2497963E0,1.4005546E1,3.2476587E0,2.7052597E1,1.7470572E0,1.2413564E0,1.2487465E0,6.3994217E0,6.2213273E0,8.145795E0,2.9292126E2,3.3272972E1,2.1005009E1,1.4943657E0,8.146364E0,1.2498758E0,1.0886802E2,1.3196493E1,2.3267172E1,2.0135107E1,1.2498486E0,2.2325912E0,3.9501517E0,3.2401586E0,1.0178926E1,3.9762363E0,2.0429848E1,2.36093E1,2.9419336E1,4.8474617E1,4.227374E0,1.2439879E0,1.7495499E0,1.4981089E0,3.2420216E0,2.3810575E1,3.4769807E0,2.7443466E0,6.4009476E0,1.7448474E0,3.4912667E0,2.9781706E1,1.0641364E1,1.0363644E1,1.9972448E0,6.149119E0,2.9892545E0,1.0587877E2,9.246342E0,3.9501517E0,1.9804261E0,2.1286745E1,2.4613585E0,1.7673748E1,1.9980233E0,1.2421352E0,3.4804375E0,6.698489E0,2.7354536E0,1.2407829E0,2.235382E0,1.8194466E1,1.3711806E1,9.897494E0,6.18171E0,2.3237627E1,1.49241E0,4.698221E1],"tree_param":{"num_deleted":"0","num_feature":"14","num_nodes":"129","size_leaf_vector":"1"}},{"base_weights":[1.3116334E-3,-1.1608236E0,8.65687E-1,-1.3952855E0,1.0292344E0,1.2511339E0,-1.385357E-1,-4.5103514E-1,-1.5352557E0,1.2089879E-1,1.5960159E0,1.4081342E0,-9.352229E-1,6.801207E-1,-9.709971E-1,7.5119907E-1,-1.2520951E0,1.2400306E-1,-1.6403155E0,7.058286E-1,-7.705185E-1,3.304728E-2,9.375193E-3,1.0522206E0,1.6280327E0,-1.4308918E0,1.205184E0,-2.3936747E-1,9.7110486E-1,-1.1271279E0,7.470415E-1,-4.4128585E-1,1.2896342E0,-1.400994E0,2.2714953E-1,-1.2482578E0,8.874273E-1,-1.6863633E0,-9.310848E-1,-2.2074478E-2,1.0721306E0,1.3756964E-2,-2.9345581E-2,1.3639606E0,1.6515799E-1,1.6345828E0,2.7814747E-3,-3.0087374E-2,-1.3019701E-2,3.886701E-3,2.8241506E-2,5.621091E-1,-6.5659547E-1,6.8429446E-1,2.925949E-2,2.452993E-2,-1.2089914E0,-8.31158E-3,2.5624325E-2,-9.532094E-1,2.1416077E-2,-4.182746E-3,2.8578335E-2,-8.7358914E-2,-1.5505558E0,-9.915666E-3,2.024844E-2,3.8127115E-3,-3.0355379E-2,2.8847754E-1,1.2638599E0,-3.4375783E-2,-1.3593318E0,-1.07665E0,1.4486528E-2,1.2705503E0,-4.1762698E-3,1.5015368E0,2.068606E-1,-9.7670555E-1,1.4702373E0,3.279808E-2,1.4098453E-2,2.4336811E-2,-3.335881E-1,-1.0566487E0,3.738503E-1,1.350995E0,7.708791E-2,-1.3606687E0,-9.7592527E-1,-2.385042E-2,-5.565367E-3,3.8385552E-3,-7.1960315E-3,-1.4776862E-2,-3.2542102E-2,1.6325058E-2,-1.7388718E-2,2.7703697E-2,9.541258E-3,7.236993E-3,-3.1341445E-2,-1.2600533E-2,-2.8801758E-2,5.713323E-3,3.0130235E-2,1.3571305E-2,3.208348E-2,-6.0038855E-3,2.4336811E-2,6.727917E-3,-2.843799E-2,1.3569451E-2,3.076736E-2,5.755161E-3,-2.03235E-2,-6.835832E-3,-2.67169E-2,2.2233466E-2,-2.0460775E-2,2.9803434E-2,1.0753552E-2,-1.3418327E-2,2.1624943E-2,-2.7794655E-2,-3.6360594E-3,1.1742319E-2,-2.1037566E-2],"categories":[],"categories_nodes":[],"categories_segments":[],"categories_sizes":[],"default_left":[0,0,0,0,0,0,0,0,0,0,0,0,0,0,0,0,0,0,0,0,0,0,0,0,0,0,0,0,0,0,0,0,0,0,0,0,0,0,0,0,0,0,0,0,0,0,0,0,0,0,0,0,0,0,0,0,0,0,0,0,0,0,0,0,0,0,0,0,0,0,0,0,0,0,0,0,0,0,0,0,0,0,0,0,0,0,0,0,0,0,0,0,0,0,0,0,0,0,0,0,0,0,0,0,0,0,0,0,0,0,0,0,0,0,0,0,0,0,0,0,0,0,0,0,0,0,0,0,0],"id":9,"left_children":[1,3,5,7,9,11,13,15,17,19,21,23,25,27,29,31,33,35,37,39,41,-1,-1,43,45,47,49,51,53,55,57,59,61,63,65,67,69,71,73,-1,75,-1,-1,77,79,81,-1,-1,-1,-1,-1,83,85,87,-1,-1,89,-1,-1,91,-1,-1,-1,93,95,-1,-1,-1,-1,97,99,-1,101,103,-1,105,-1,107,109,111,113,-1,-1,-1,115,117,119,121,123,125,127,-1,-1,-1,-1,-1,-1,-1,-1,-1,-1,-1,-1,-1,-1,-1,-1,-1,-1,-1,-1,-1,-1,-1,-1,-1,-1,-1,-1,-1,-1,-1,-1,-1,-1,-1,-1,-1,-1],"loss_changes":[1.1076036E3,2.429306E2,2.4492584E2,5.5511353E1,2.3517986E1,1.5819678E2,1.20796906E2,5.5174946E1,6.469092E1,1.0335011E1,1.0216217E0,3.1691162E1,3.4847977E1,2.4169735E1,2.4397713E1,1.5429035E1,7.8446617E0,2.5159113E1,9.794128E0,9.044682E0,9.054948E0,0E0,0E0,4.5630264E1,2.3278198E0,4.99588E-1,1.0668564E0,7.8291597E0,8.614075E0,1.7070137E1,5.449288E0,7.170182E0,3.6804848E0,5.9915314E0,2.7645233E0,3.6330023E0,3.0931215E0,1.1156006E0,6.4301567E0,0E0,2.901167E0,0E0,0E0,1.9200302E1,6.739153E1,1.3397217E-1,0E0,0E0,0E0,0E0,0E0,5.2008533E0,6.633205E0,1.808537E1,0E0,0E0,1.4536057E0,0E0,0E0,7.1223974E-1,0E0,0E0,0E0,3.9223477E-1,5.3378296E-1,0E0,0E0,0E0,0E0,5.1185503E0,2.0990753E-1,0E0,1.2776539E1,2.6564617E0,0E0,1.6892853E0,0E0,8.150558E0,7.629042E0,1.462899E1,9.19075E-2,0E0,0E0,0E0,2.0896857E0,1.7711906E0,6.2603197E0,1.6161766E0,1.9184547E1,1.293541E0,4.7199745E0,0E0,0E0,0E0,0E0,0E0,0E0,0E0,0E0,0E0,0E0,0E0,0E0,0E0,0E0,0E0,0E0,0E0,0E0,0E0,0E0,0E0,0E0,0E0,0E0,0E0,0E0,0E0,0E0,0E0,0E0,0E0,0E0,0E0,0E0,0E0,0E0,0E0,0E0],"parents":[2147483647,0,0,1,1,2,2,3,3,4,4,5,5,6,6,7,7,8,8,9,9,10,10,11,11,12,12,13,13,14,14,15,15,16,16,17,17,18,18,19,19,20,20,23,23,24,24,25,25,26,26,27,27,28,28,29,29,30,30,31,31,32,32,33,33,34,34,35,35,36,36,37,37,38,38,40,40,43,43,44,44,45,45,51,51,52,52,53,53,56,56,59,59,63,63,64,64,69,69,70,70,72,72,73,73,75,75,77,77,78,78,79,79,80,80,84,84,85,85,86,86,87,87,88,88,89,89,90,90],"right_children":[2,4,6,8,10,12,14,16,18,20,22,24,26,28,30,32,34,36,38,40,42,-1,-1,44,46,48,50,52,54,56,58,60,62,64,66,68,70,72,74,-1,76,-1,-1,78,80,82,-1,-1,-1,-1,-1,84,86,88,-1,-1,90,-1,-1,92,-1,-1,-1,94,96,-1,-1,-1,-1,98,100,-1,102,104,-1,106,-1,108,110,112,114,-1,-1,-1,116,118,120,122,124,126,128,-1,-1,-1,-1,-1,-1,-1,-1,-1,-1,-1,-1,-1,-1,-1,-1,-1,-1,-1,-1,-1,-1,-1,-1,-1,-1,-1,-1,-1,-1,-1,-1,-1,-1,-1,-1,-1,-1],"split_conditions":[5.0327927E-1,1.06089E-2,-7.6491736E-2,8.9967155E-1,6.613407E-1,2.551649E-1,1.6182162E-1,-3.281093E-1,-1.750699E-1,2.3803021E-1,4.8964778E-1,-5.21808E-1,-3.281093E-1,-4.6265063E-1,8.4055924E-1,-1.750699E-1,4.400226E0,5.6186195E-2,-4.6265063E-1,4.99568E-2,1.06662445E-1,3.304728E-2,9.375193E-3,8.9967155E-1,2.448033E-1,-1.0146252E-1,7.4946034E-1,7.061001E-1,8.4055924E-1,-4.2348057E-1,-5.21808E-1,-5.21808E-1,8.9352585E-2,-1.0146252E-1,8.6459166E-1,1.1222143E-1,3.102968E-1,-3.281093E-1,1.5683131E0,-2.2074478E-2,2.144474E-1,1.3756964E-2,-2.9345581E-2,-3.281093E-1,-3.281093E-1,2.4247488E-1,2.7814747E-3,-3.0087374E-2,-1.3019701E-2,3.886701E-3,2.8241506E-2,1.181596E0,7.45276E-1,9.299785E-1,2.925949E-2,2.452993E-2,4.1893503E-1,-8.31158E-3,2.5624325E-2,-6.0754114E-1,2.1416077E-2,-4.182746E-3,2.8578335E-2,-1.8196703E-1,-7.6491736E-2,-9.915666E-3,2.024844E-2,3.8127115E-3,-3.0355379E-2,1.6999227E-1,4.3209377E-1,-3.4375783E-2,-2.652049E-1,3.63839E-1,1.4486528E-2,-7.660921E-1,-4.1762698E-3,-1.750699E-1,8.258363E-1,2.0263821E-1,-3.0272382E-1,3.279808E-2,1.4098453E-2,2.4336811E-2,1.4402318E-1,-1.750699E-1,1.4891401E-1,1.3085734E0,3.5719628E0,2.3842716E-1,1.7512582E-1,-2.385042E-2,-5.565367E-3,3.8385552E-3,-7.1960315E-3,-1.4776862E-2,-3.2542102E-2,1.6325058E-2,-1.7388718E-2,2.7703697E-2,9.541258E-3,7.236993E-3,-3.1341445E-2,-1.2600533E-2,-2.8801758E-2,5.713323E-3,3.0130235E-2,1.3571305E-2,3.208348E-2,-6.0038855E-3,2.4336811E-2,6.727917E-3,-2.843799E-2,1.3569451E-2,3.076736E-2,5.755161E-3,-2.03235E-2,-6.835832E-3,-2.67169E-2,2.2233466E-2,-2.0460775E-2,2.9803434E-2,1.0753552E-2,-1.3418327E-2,2.1624943E-2,-2.7794655E-2,-3.6360594E-3,1.1742319E-2,-2.1037566E-2],"split_indices":[12,11,2,1,11,13,13,2,4,2,2,11,2,11,12,4,8,12,11,12,13,0,0,1,13,9,12,12,12,9,11,11,12,9,9,2,12,2,10,0,13,0,0,2,2,13,0,0,0,0,0,2,12,2,0,0,10,0,0,10,0,0,0,9,2,0,0,0,0,12,12,0,2,2,0,10,0,4,12,13,9,0,0,0,13,4,13,4,2,13,2,0,0,0,0,0,0,0,0,0,0,0,0,0,0,0,0,0,0,0,0,0,0,0,0,0,0,0,0,0,0,0,0,0,0,0,0,0,0],"split_type":[0,0,0,0,0,0,0,0,0,0,0,0,0,0,0,0,0,0,0,0,0,0,0,0,0,0,0,0,0,0,0,0,0,0,0,0,0,0,0,0,0,0,0,0,0,0,0,0,0,0,0,0,0,0,0,0,0,0,0,0,0,0,0,0,0,0,0,0,0,0,0,0,0,0,0,0,0,0,0,0,0,0,0,0,0,0,0,0,0,0,0,0,0,0,0,0,0,0,0,0,0,0,0,0,0,0,0,0,0,0,0,0,0,0,0,0,0,0,0,0,0,0,0,0,0,0,0,0,0],"sum_hessian":[1.1006183E3,4.6930472E2,6.313136E2,4.2424863E2,4.5056065E1,4.560311E2,1.752825E2,5.531454E1,3.689341E2,1.7777994E1,2.7278069E1,4.2581003E2,3.022109E1,8.8466286E1,8.6816216E1,2.2143589E1,3.317095E1,2.1958172E1,3.4697592E2,1.0860048E1,6.917947E0,2.5535784E1,1.742286E0,1.64823E2,2.6098703E2,2.4807688E1,5.4134026E0,2.130896E1,6.7157326E1,7.989914E1,6.9170775E0,6.944304E0,1.51992855E1,3.0185423E1,2.9855285E0,7.622176E0,1.4335997E1,3.2452777E2,2.2448162E1,1.4893622E0,9.370686E0,2.2407331E0,4.6772137E0,1.2156415E2,4.3258854E1,2.5974655E2,1.2404544E0,2.1822802E1,2.9848878E0,1.2492087E0,4.1641936E0,7.1763186E0,1.4132641E1,4.3931797E1,2.3225527E1,2.2156496E0,7.7683495E1,2.247486E0,4.6695914E0,5.4640408E0,1.480263E0,1.2497395E0,1.3949546E1,3.2473457E0,2.6938078E1,1.7464085E0,1.2391201E0,1.2486138E0,6.3735623E0,6.2144313E0,8.121566E0,2.9138098E2,3.3146793E1,2.0955133E1,1.4930291E0,8.120869E0,1.2498175E0,1.08380325E2,1.31838255E1,2.3206348E1,2.0052505E1,2.575086E2,2.2379498E0,3.9386947E0,3.2376242E0,1.016199E1,3.9706507E0,2.0356184E1,2.3575613E1,4.4127563E1,3.355593E1,3.467668E0,1.9963727E0,1.7494637E0,1.497882E0,3.2394538E0,2.3698624E1,4.4714265E0,1.7430047E0,6.3775964E0,1.7439692E0,3.4899385E0,2.9656855E1,1.0628027E1,1.0327106E1,1.9968458E0,6.1240225E0,1.2861864E1,9.551846E1,9.245131E0,3.9386947E0,5.93764E0,1.7268707E1,2.4570422E0,1.7595463E1,1.99764E0,1.2399842E0,3.4788651E0,6.6831245E0,2.7318785E0,1.238772E0,1.6671162E1,3.685023E0,1.3701298E1,9.874316E0,4.289123E1,1.2363302E0,1.243148E0,3.2312782E1],"tree_param":{"num_deleted":"0","num_feature":"14","num_nodes":"129","size_leaf_vector":"1"}},{"base_weights":[1.4014805E-3,-1.1434721E0,8.52457E-1,-1.351582E0,1.2497051E0,1.232569E0,-1.3583344E-1,-2.670186E-1,-1.4629138E0,4.123988E-1,3.267268E-2,1.3873603E0,-9.203267E-1,6.6911787E-1,-9.5432025E-1,-7.3182374E-1,8.86301E-1,-3.1404468E-1,-1.5934223E0,-6.2039816E-1,8.383353E-1,1.0360613E0,1.6047051E0,-1.4093711E0,1.1893942E0,-2.3600155E-1,9.559414E-1,-1.1080241E0,7.3588914E-1,1.5916714E-1,-1.433142E0,-1.220908E-2,1.108825E0,1.2701521E0,-1.2868615E0,-1.6572392E0,-6.635811E-1,-2.5577422E-3,-2.0990482E-2,-1.0569123E-2,1.1963195E0,1.3432069E0,1.629223E-1,1.6111922E0,2.7509995E-3,-2.9637383E-2,-1.28336E-2,3.8437464E-3,2.7881397E-2,5.5310625E-1,-6.466684E-1,6.734231E-1,2.8825363E-2,2.4245448E-2,-1.1887939E0,-8.198225E-3,2.527559E-2,-3.1925154E-1,2.7297534E-2,-3.2734822E-2,8.024004E-3,4.4161966E-1,1.2995967E0,-4.1364E-3,2.8160177E-2,1.4712362E-2,-1.4400346E0,-3.3887018E-2,-1.3269675E0,-8.5615736E-1,2.3215108E-2,2.6739707E-2,4.6222685E-3,1.479136E0,2.0422468E-1,-9.604337E-1,1.4491569E0,3.2329053E-2,1.3910623E-2,2.400962E-2,-3.305774E-1,-2.5820188E-2,1.1513428E-2,1.330716E0,7.600101E-2,-1.4150857E0,-1.025686E0,-1.360431E-2,2.350054E-2,2.3433834E-2,-1.2886056E-2,8.403531E-3,2.9443605E-2,-8.816651E-3,-3.19772E-2,7.1267327E-3,-3.0182356E-2,-2.3145115E-2,-2.566361E-3,1.3336923E-2,3.1617146E-2,-5.8963136E-3,2.400962E-2,2.3828264E-2,-2.411446E-2,1.32179605E-2,3.0353362E-2,5.67924E-3,-2.0120086E-2,-1.0221653E-2,2.0342436E-2,6.615715E-3,2.8606564E-2,1.4604927E-2,-2.0870553E-2,-1.6771168E-2,-3.055094E-2,2.2116264E-2,-2.2307383E-2],"categories":[],"categories_nodes":[],"categories_segments":[],"categories_sizes":[],"default_left":[0,0,0,0,0,0,0,0,0,0,0,0,0,0,0,0,0,0,0,0,0,0,0,0,0,0,0,0,0,0,0,0,0,0,0,0,0,0,0,0,0,0,0,0,0,0,0,0,0,0,0,0,0,0,0,0,0,0,0,0,0,0,0,0,0,0,0,0,0,0,0,0,0,0,0,0,0,0,0,0,0,0,0,0,0,0,0,0,0,0,0,0,0,0,0,0,0,0,0,0,0,0,0,0,0,0,0,0,0,0,0,0,0,0,0,0,0,0,0],"id":10,"left_children":[1,3,5,7,9,11,13,15,17,19,-1,21,23,25,27,29,31,33,35,37,39,41,43,45,47,49,51,53,55,57,59,-1,61,63,65,67,69,-1,-1,-1,71,73,75,77,-1,-1,-1,-1,-1,79,81,83,-1,-1,85,-1,-1,87,-1,-1,-1,89,91,-1,-1,-1,93,-1,95,97,-1,-1,-1,99,101,103,105,-1,-1,-1,107,-1,109,111,113,115,117,-1,-1,-1,-1,-1,-1,-1,-1,-1,-1,-1,-1,-1,-1,-1,-1,-1,-1,-1,-1,-1,-1,-1,-1,-1,-1,-1,-1,-1,-1,-1,-1],"loss_changes":[1.0693596E3,2.3476074E2,2.3665927E2,5.1652893E1,1.1528744E1,1.5282666E2,1.1644435E2,2.28143E1,5.8075012E1,6.3581247E0,0E0,3.0761414E1,3.376892E1,2.3384445E1,2.356411E1,1.8986002E1,4.7834377E0,6.497064E1,1.9702942E1,8.062266E-1,5.437684E0,4.4066727E1,2.2579346E0,4.7999573E-1,1.0374832E0,7.5739245E0,8.344688E0,1.6558594E1,5.296482E0,8.58157E0,6.967327E0,0E0,8.375082E-1,3.5772133E0,9.10096E0,1.7643433E0,9.489809E0,0E0,0E0,0E0,7.8929806E-1,1.8589554E1,6.512731E1,1.24694824E-1,0E0,0E0,0E0,0E0,0E0,5.065612E0,6.421695E0,1.7498177E1,0E0,0E0,1.444397E0,0E0,0E0,6.6895566E0,0E0,0E0,0E0,3.910544E0,6.1208534E-1,0E0,0E0,0E0,3.1783638E0,0E0,1.2092033E1,4.7713165E0,0E0,0E0,0E0,7.9400024E0,7.3988724E0,1.4182226E1,1.290741E-1,0E0,0E0,0E0,2.0434458E0,0E0,4.9681315E0,1.6463966E0,1.8735548E1,6.7902374E-1,1.0643696E1,0E0,0E0,0E0,0E0,0E0,0E0,0E0,0E0,0E0,0E0,0E0,0E0,0E0,0E0,0E0,0E0,0E0,0E0,0E0,0E0,0E0,0E0,0E0,0E0,0E0,0E0,0E0,0E0,0E0,0E0,0E0,0E0],"parents":[2147483647,0,0,1,1,2,2,3,3,4,4,5,5,6,6,7,7,8,8,9,9,11,11,12,12,13,13,14,14,15,15,16,16,17,17,18,18,19,19,20,20,21,21,22,22,23,23,24,24,25,25,26,26,27,27,28,28,29,29,30,30,32,32,33,33,34,34,35,35,36,36,40,40,41,41,42,42,43,43,49,49,50,50,51,51,54,54,57,57,61,61,62,62,66,66,68,68,69,69,73,73,74,74,75,75,76,76,80,80,82,82,83,83,84,84,85,85,86,86],"right_children":[2,4,6,8,10,12,14,16,18,20,-1,22,24,26,28,30,32,34,36,38,40,42,44,46,48,50,52,54,56,58,60,-1,62,64,66,68,70,-1,-1,-1,72,74,76,78,-1,-1,-1,-1,-1,80,82,84,-1,-1,86,-1,-1,88,-1,-1,-1,90,92,-1,-1,-1,94,-1,96,98,-1,-1,-1,100,102,104,106,-1,-1,-1,108,-1,110,112,114,116,118,-1,-1,-1,-1,-1,-1,-1,-1,-1,-1,-1,-1,-1,-1,-1,-1,-1,-1,-1,-1,-1,-1,-1,-1,-1,-1,-1,-1,-1,-1,-1,-1],"split_conditions":[5.0327927E-1,1.8808122E-1,-7.6491736E-2,-1.750699E-1,8.3881307E-1,2.551649E-1,1.6182162E-1,1.3775403E0,8.9967155E-1,8.9967155E-1,3.267268E-2,-5.21808E-1,-3.281093E-1,-4.6265063E-1,8.4055924E-1,3.63839E-1,6.464342E-2,-3.281093E-1,-4.0349317E-1,1.1645004E0,7.2924756E-2,8.9967155E-1,2.448033E-1,-1.0146252E-1,7.4946034E-1,7.061001E-1,8.4055924E-1,-4.2348057E-1,-5.21808E-1,-5.21808E-1,4.400226E0,-1.220908E-2,2.6807016E-1,8.9352585E-2,8.41463E-2,-3.281093E-1,1.5683131E0,-2.5577422E-3,-2.0990482E-2,-1.0569123E-2,2.3803021E-1,-3.281093E-1,-3.281093E-1,2.4247488E-1,2.7509995E-3,-2.9637383E-2,-1.28336E-2,3.8437464E-3,2.7881397E-2,1.181596E0,7.4383485E-1,9.299785E-1,2.8825363E-2,2.4245448E-2,1.9046225E-1,-8.198225E-3,2.527559E-2,2.2901256E-2,2.7297534E-2,-3.2734822E-2,8.024004E-3,1.6387296E-1,-5.149076E-1,-4.1364E-3,2.8160177E-2,1.4712362E-2,-2.652049E-1,-3.3887018E-2,-2.652049E-1,-4.854854E-2,2.3215108E-2,2.6739707E-2,4.6222685E-3,-1.750699E-1,8.258363E-1,-1.750699E-1,1.3775403E0,3.2329053E-2,1.3910623E-2,2.400962E-2,1.4402318E-1,-2.5820188E-2,4.400226E0,2.0857517E-1,8.167019E-2,-1.750699E-1,1.1222143E-1,-1.360431E-2,2.350054E-2,2.3433834E-2,-1.2886056E-2,8.403531E-3,2.9443605E-2,-8.816651E-3,-3.19772E-2,7.1267327E-3,-3.0182356E-2,-2.3145115E-2,-2.566361E-3,1.3336923E-2,3.1617146E-2,-5.8963136E-3,2.400962E-2,2.3828264E-2,-2.411446E-2,1.32179605E-2,3.0353362E-2,5.67924E-3,-2.0120086E-2,-1.0221653E-2,2.0342436E-2,6.615715E-3,2.8606564E-2,1.4604927E-2,-2.0870553E-2,-1.6771168E-2,-3.055094E-2,2.2116264E-2,-2.2307383E-2],"split_indices":[12,11,2,4,11,13,13,7,1,1,0,11,2,11,12,2,12,2,11,10,12,1,13,9,12,12,12,9,11,11,8,0,12,12,13,2,10,0,0,0,2,2,2,13,0,0,0,0,0,2,9,2,0,0,10,0,0,10,0,0,0,12,10,0,0,0,2,0,2,11,0,0,0,4,12,4,7,0,0,0,13,0,8,10,13,4,2,0,0,0,0,0,0,0,0,0,0,0,0,0,0,0,0,0,0,0,0,0,0,0,0,0,0,0,0,0,0,0,0],"split_type":[0,0,0,0,0,0,0,0,0,0,0,0,0,0,0,0,0,0,0,0,0,0,0,0,0,0,0,0,0,0,0,0,0,0,0,0,0,0,0,0,0,0,0,0,0,0,0,0,0,0,0,0,0,0,0,0,0,0,0,0,0,0,0,0,0,0,0,0,0,0,0,0,0,0,0,0,0,0,0,0,0,0,0,0,0,0,0,0,0,0,0,0,0,0,0,0,0,0,0,0,0,0,0,0,0,0,0,0,0,0,0,0,0,0,0,0,0,0,0],"sum_hessian":[1.0955093E3,4.669739E2,6.2853534E2,4.3001514E2,3.6958755E1,4.537636E2,1.7477173E2,4.034858E1,3.8966656E2,1.2271073E1,2.4687683E1,4.236585E2,3.0105122E1,8.820646E1,8.656528E1,2.9018963E1,1.1329617E1,4.009711E1,3.4956946E2,3.44973E0,8.821343E0,1.6413324E2,2.5952527E2,2.4709332E1,5.3957896E0,2.126822E1,6.693824E1,7.966515E1,6.9001226E0,1.3121622E1,1.5897341E1,1.2407422E0,1.0088874E1,1.5138679E1,2.4958431E1,3.263866E2,2.318287E1,2.2106118E0,1.2391181E0,1.7320685E0,7.0892754E0,1.2102256E2,4.3110683E1,2.5828506E2,1.2401925E0,2.1727194E1,2.982137E0,1.2490819E0,4.1467075E0,7.161106E0,1.4107115E1,4.381831E1,2.3119928E1,2.2086172E0,7.7456535E1,2.2468233E0,4.6532993E0,9.920458E0,3.2011642E0,1.4406088E1,1.4912529E0,2.98034E0,7.1085343E0,1.2496723E0,1.3889007E1,1.4894453E0,2.3468987E1,2.897032E2,3.668341E1,2.1449385E1,1.7334868E0,5.8513393E0,1.2379361E0,1.07852516E2,1.3170048E1,2.3147606E1,1.9963078E1,2.5604874E2,2.2363236E0,3.926274E0,3.234832E0,6.6426616E0,7.4644537E0,2.0279291E1,2.3539017E1,2.9229076E1,4.822746E1,8.429081E0,1.4913765E0,1.7349439E0,1.245396E0,1.7296293E0,5.378905E0,3.7366364E0,1.973235E1,3.4885387E0,3.3194874E1,1.4755302E1,6.6940813E0,1.2843897E1,9.500861E1,9.243773E0,3.926274E0,1.9739119E0,2.1173693E1,2.4476871E0,1.751539E1,1.9972285E0,1.2376037E0,5.235453E0,2.2290003E0,2.228622E0,1.805067E1,1.5076264E1,8.462751E0,6.151279E0,2.3077797E1,1.4897757E0,4.6737682E1],"tree_param":{"num_deleted":"0","num_feature":"14","num_nodes":"119","size_leaf_vector":"1"}},{"base_weights":[1.5714408E-3,-1.1266108E0,8.3972937E-1,-1.3545946E0,9.988577E-1,1.2148093E0,-1.3326846E-1,-4.378018E-1,-1.4909425E0,1.161653E-1,1.5529181E0,1.3674943E0,-9.059463E-1,6.7157775E-1,-9.251397E-1,7.256263E-1,-1.2139387E0,1.2432273E-1,-1.5938025E0,6.861437E-1,-7.518813E-1,3.217088E-2,9.051961E-3,1.020653E0,1.5823854E0,-1.3886242E0,1.1740768E0,-1.9821389E-1,9.447881E-1,-1.0935479E0,7.1869266E-1,-4.3283075E-1,1.2513219E0,6.772058E-2,-1.3844357E0,-1.2123656E0,8.656523E-1,-1.6391621E0,-8.9987516E-1,-2.1719381E-2,1.0462906E0,1.3561791E-2,-2.8765904E-2,1.3232156E0,1.6126975E-1,1.588816E0,2.7208638E-3,-2.920455E-2,-1.2650862E-2,3.8012823E-3,2.7533516E-2,5.4432476E-1,-5.990665E-1,6.6226774E-1,1.4520273E0,2.3968758E-2,-1.1728808E0,-8.086598E-3,2.3236677E-2,-9.32221E-1,2.091315E-2,-4.0905876E-3,2.7756771E-2,7.992691E-1,-2.0008627E-2,-7.694779E-2,-1.5403137E0,3.8250114E-3,-2.956142E-2,2.8425175E-1,1.2318562E0,-3.34213E-2,-1.3185785E0,-1.0419525E0,1.4164538E-2,1.2412837E0,-4.101573E-3,1.4576068E0,2.0164004E-1,-9.440445E-1,1.4288325E0,3.188046E-2,1.3726165E-2,2.369165E-2,-3.2761672E-1,-9.948489E-1,3.7055862E-1,1.311055E0,7.4303105E-2,9.5691E-3,2.9682342E-2,-6.920111E-1,-1.2334234E0,-2.3341417E-2,-5.4355473E-3,4.960933E-3,1.992784E-2,-5.946573E-3,5.021811E-3,-3.1839274E-2,-1.3485336E-2,1.932739E-2,-1.2122086E-2,2.7015507E-2,9.288464E-3,7.0182686E-3,-3.0435707E-2,-1.2028265E-2,-2.8060267E-2,5.5417493E-3,2.9479593E-2,-2.2040044E-3,3.0060828E-2,-5.790758E-3,2.369165E-2,6.7664073E-3,-2.762261E-2,1.3048501E-2,2.9927317E-2,5.604382E-3,-1.9920906E-2,-6.461514E-3,-2.5506388E-2,2.1876229E-2,-2.0031344E-2,2.7605733E-2,2.1255056E-3,-1.304931E-2,2.1052033E-2,-2.396931E-2,1.510925E-2,-1.1503291E-2,-2.5736785E-2],"categories":[],"categories_nodes":[],"categories_segments":[],"categories_sizes":[],"default_left":[0,0,0,0,0,0,0,0,0,0,0,0,0,0,0,0,0,0,0,0,0,0,0,0,0,0,0,0,0,0,0,0,0,0,0,0,0,0,0,0,0,0,0,0,0,0,0,0,0,0,0,0,0,0,0,0,0,0,0,0,0,0,0,0,0,0,0,0,0,0,0,0,0,0,0,0,0,0,0,0,0,0,0,0,0,0,0,0,0,0,0,0,0,0,0,0,0,0,0,0,0,0,0,0,0,0,0,0,0,0,0,0,0,0,0,0,0,0,0,0,0,0,0,0,0,0,0,0,0,0,0,0,0],"id":11,"left_children":[1,3,5,7,9,11,13,15,17,19,21,23,25,27,29,31,33,35,37,39,41,-1,-1,43,45,47,49,51,53,55,57,59,61,63,65,67,69,71,73,-1,75,-1,-1,77,79,81,-1,-1,-1,-1,-1,83,85,87,89,-1,91,-1,-1,93,-1,-1,-1,95,-1,97,99,-1,-1,101,103,-1,105,107,-1,109,-1,111,113,115,117,-1,-1,-1,119,121,123,125,127,-1,-1,129,131,-1,-1,-1,-1,-1,-1,-1,-1,-1,-1,-1,-1,-1,-1,-1,-1,-1,-1,-1,-1,-1,-1,-1,-1,-1,-1,-1,-1,-1,-1,-1,-1,-1,-1,-1,-1,-1,-1,-1,-1],"loss_changes":[1.0326396E3,2.2691724E2,2.288266E2,5.195117E1,2.2154552E1,1.4770691E2,1.1230225E2,5.135626E1,6.0994873E1,9.764216E0,9.8431396E-1,2.9864014E1,3.2733837E1,2.0976402E1,2.5354523E1,1.4545059E1,7.5025063E0,2.3676903E1,9.355591E0,8.6712055E0,8.715849E0,0E0,0E0,4.2530075E1,2.1924438E0,4.6245193E-1,1.0096388E0,6.796237E0,8.603363E0,1.6115196E1,4.874348E0,6.82283E0,3.4784946E0,4.655114E0,5.989689E0,3.47616E0,2.9013834E0,1.0875244E0,6.0680485E0,0E0,2.7730656E0,0E0,0E0,1.80112E1,6.2916927E1,1.17126465E-1,0E0,0E0,0E0,0E0,0E0,4.93503E0,5.9687986E0,1.6956781E1,9.670258E-3,0E0,1.4375458E0,0E0,0E0,6.8314314E-1,0E0,0E0,0E0,1.3145113E-1,0E0,3.815439E-1,1.2205505E-1,0E0,0E0,4.9595714E0,2.0042133E-1,0E0,1.2022034E1,2.6301022E0,0E0,1.6269474E0,0E0,7.8792877E0,7.1771193E0,1.3962263E1,1.17889404E-1,0E0,0E0,0E0,1.9984667E0,1.5916052E0,6.0163517E0,1.6210976E0,1.8115473E1,0E0,0E0,9.026656E0,1.6725845E0,0E0,0E0,0E0,0E0,0E0,0E0,0E0,0E0,0E0,0E0,0E0,0E0,0E0,0E0,0E0,0E0,0E0,0E0,0E0,0E0,0E0,0E0,0E0,0E0,0E0,0E0,0E0,0E0,0E0,0E0,0E0,0E0,0E0,0E0,0E0,0E0,0E0,0E0,0E0,0E0],"parents":[2147483647,0,0,1,1,2,2,3,3,4,4,5,5,6,6,7,7,8,8,9,9,10,10,11,11,12,12,13,13,14,14,15,15,16,16,17,17,18,18,19,19,20,20,23,23,24,24,25,25,26,26,27,27,28,28,29,29,30,30,31,31,32,32,33,33,34,34,35,35,36,36,37,37,38,38,40,40,43,43,44,44,45,45,51,51,52,52,53,53,54,54,56,56,59,59,63,63,65,65,66,66,69,69,70,70,72,72,73,73,75,75,77,77,78,78,79,79,80,80,84,84,85,85,86,86,87,87,88,88,91,91,92,92],"right_children":[2,4,6,8,10,12,14,16,18,20,22,24,26,28,30,32,34,36,38,40,42,-1,-1,44,46,48,50,52,54,56,58,60,62,64,66,68,70,72,74,-1,76,-1,-1,78,80,82,-1,-1,-1,-1,-1,84,86,88,90,-1,92,-1,-1,94,-1,-1,-1,96,-1,98,100,-1,-1,102,104,-1,106,108,-1,110,-1,112,114,116,118,-1,-1,-1,120,122,124,126,128,-1,-1,130,132,-1,-1,-1,-1,-1,-1,-1,-1,-1,-1,-1,-1,-1,-1,-1,-1,-1,-1,-1,-1,-1,-1,-1,-1,-1,-1,-1,-1,-1,-1,-1,-1,-1,-1,-1,-1,-1,-1,-1,-1],"split_conditions":[5.0327927E-1,1.06089E-2,-7.6491736E-2,8.9967155E-1,6.613407E-1,2.551649E-1,1.605089E-1,-3.281093E-1,-1.750699E-1,2.3803021E-1,4.8964778E-1,-5.21808E-1,-3.281093E-1,-4.6265063E-1,8.4055924E-1,-1.750699E-1,8.41463E-2,5.6186195E-2,-4.6265063E-1,4.99568E-2,1.06662445E-1,3.217088E-2,9.051961E-3,8.9967155E-1,2.448033E-1,-1.0146252E-1,7.4946034E-1,7.061001E-1,8.4055924E-1,-4.2348057E-1,-5.21808E-1,-5.21808E-1,8.9352585E-2,-4.0349317E-1,-1.0146252E-1,1.1222143E-1,3.102968E-1,-3.281093E-1,1.5683131E0,-2.1719381E-2,2.144474E-1,1.3561791E-2,-2.8765904E-2,-3.281093E-1,-3.281093E-1,2.4247488E-1,2.7208638E-3,-2.920455E-2,-1.2650862E-2,3.8012823E-3,2.7533516E-2,1.181596E0,7.45276E-1,9.299785E-1,3.63839E-1,2.3968758E-2,1.7512582E-1,-8.086598E-3,2.3236677E-2,-6.0754114E-1,2.091315E-2,-4.0905876E-3,2.7756771E-2,9.048439E-1,-2.0008627E-2,-1.7089525E-1,2.3401299E-1,3.8250114E-3,-2.956142E-2,-1.3587348E-2,4.3209377E-1,-3.34213E-2,-2.652049E-1,3.63839E-1,1.4164538E-2,-7.660921E-1,-4.101573E-3,-6.649941E-1,8.258363E-1,2.0263821E-1,1.3775403E0,3.188046E-2,1.3726165E-2,2.369165E-2,1.4402318E-1,-1.750699E-1,1.4891401E-1,1.5027794E-1,3.5719628E0,9.5691E-3,2.9682342E-2,6.495619E-2,5.3728545E-1,-2.3341417E-2,-5.4355473E-3,4.960933E-3,1.992784E-2,-5.946573E-3,5.021811E-3,-3.1839274E-2,-1.3485336E-2,1.932739E-2,-1.2122086E-2,2.7015507E-2,9.288464E-3,7.0182686E-3,-3.0435707E-2,-1.2028265E-2,-2.8060267E-2,5.5417493E-3,2.9479593E-2,-2.2040044E-3,3.0060828E-2,-5.790758E-3,2.369165E-2,6.7664073E-3,-2.762261E-2,1.3048501E-2,2.9927317E-2,5.604382E-3,-1.9920906E-2,-6.461514E-3,-2.5506388E-2,2.1876229E-2,-2.0031344E-2,2.7605733E-2,2.1255056E-3,-1.304931E-2,2.1052033E-2,-2.396931E-2,1.510925E-2,-1.1503291E-2,-2.5736785E-2],"split_indices":[12,11,2,1,11,13,13,2,4,2,2,11,2,11,12,4,13,12,11,12,13,0,0,1,13,9,12,12,12,9,11,11,12,11,9,2,12,2,10,0,13,0,0,2,2,13,0,0,0,0,0,2,12,2,2,0,2,0,0,10,0,0,0,9,0,10,13,0,0,2,12,0,2,2,0,10,0,9,12,13,7,0,0,0,13,4,13,13,2,0,0,10,12,0,0,0,0,0,0,0,0,0,0,0,0,0,0,0,0,0,0,0,0,0,0,0,0,0,0,0,0,0,0,0,0,0,0,0,0,0,0,0,0],"split_type":[0,0,0,0,0,0,0,0,0,0,0,0,0,0,0,0,0,0,0,0,0,0,0,0,0,0,0,0,0,0,0,0,0,0,0,0,0,0,0,0,0,0,0,0,0,0,0,0,0,0,0,0,0,0,0,0,0,0,0,0,0,0,0,0,0,0,0,0,0,0,0,0,0,0,0,0,0,0,0,0,0,0,0,0,0,0,0,0,0,0,0,0,0,0,0,0,0,0,0,0,0,0,0,0,0,0,0,0,0,0,0,0,0,0,0,0,0,0,0,0,0,0,0,0,0,0,0,0,0,0,0,0,0],"sum_hessian":[1.0900524E3,4.6449115E2,6.255612E2,4.1982248E2,4.4668686E1,4.5133E2,1.7423126E2,5.4898712E1,3.6492377E2,1.769224E1,2.6976446E1,4.2134982E2,2.9980152E1,8.648307E1,8.774819E1,2.1994328E1,3.2904385E1,2.1834602E1,3.4308917E2,1.0806204E1,6.8860364E0,2.5238638E1,1.7378085E0,1.6338713E2,2.5796268E2,2.4603264E1,5.3768883E0,2.0737553E1,6.5745514E1,7.989756E1,7.850632E0,6.920505E0,1.5073822E1,3.9340615E0,2.8970324E1,7.562784E0,1.4271819E1,3.2076007E2,2.2329098E1,1.4848092E0,9.321395E0,2.237304E0,4.648732E0,1.20443085E2,4.2944057E1,2.5672275E2,1.239929E0,2.162408E1,2.9791825E0,1.2489471E0,4.127941E0,7.144737E0,1.3592816E1,4.370724E1,2.2038275E1,2.2010498E0,7.769651E1,2.2460935E0,5.604539E0,5.4493504E0,1.4711548E0,1.2495952E0,1.3824227E1,2.4843347E0,1.4497268E0,3.2450294E0,2.5725294E1,1.2483683E0,6.314416E0,6.201798E0,8.070021E0,2.8789728E2,3.2862766E1,2.0839931E1,1.4891663E0,8.071693E0,1.2497015E0,1.0728786E2,1.3155224E1,2.3076546E1,1.986751E1,2.5448825E2,2.2345052E0,3.9129438E0,3.2317932E0,9.6342745E0,3.9585412E0,2.0194206E1,2.3513035E1,1.2108942E0,2.0827381E1,1.0078281E1,6.761823E1,3.4540198E0,1.9953303E0,1.2492746E0,1.2350602E0,1.9970194E0,1.24801E0,2.3486397E1,2.2388966E0,3.4632025E0,2.7385955E0,6.3291526E0,1.7408684E0,3.4870722E0,2.9375694E1,1.058752E1,1.0252411E1,1.9951966E0,6.0764966E0,2.9814596E0,1.043064E2,9.24228E0,3.9129438E0,5.9235206E0,1.7153025E1,2.44292E0,1.7424591E1,1.9967903E0,1.2350028E0,3.4714599E0,6.162815E0,2.7250113E0,1.2335297E0,1.8959063E1,1.2351433E0,1.3681925E1,9.83111E0,7.59345E0,2.4848318E0,5.9584293E0,6.16598E1],"tree_param":{"num_deleted":"0","num_feature":"14","num_nodes":"133","size_leaf_vector":"1"}},{"base_weights":[1.6408596E-3,-1.1106448E0,8.2742375E-1,-1.3355758E0,9.8452675E-1,1.1976333E0,-1.3076851E-1,-4.313053E-1,-1.47031E0,1.1387684E-1,1.5325265E0,1.34829E0,-8.920503E-1,6.610265E-1,-9.098945E-1,7.1443176E-1,-1.1961336E0,1.2299526E-1,-1.5720792E0,6.752264E-1,-7.4091023E-1,3.1753547E-2,8.941022E-3,1.0054986E0,1.5610086E0,-1.3686033E0,1.1592082E0,-1.9561146E-1,9.3053E-1,-1.0757751E0,7.0783126E-1,-4.259617E-1,1.2331063E0,6.7460656E-2,-1.3646902E0,-1.195761E0,8.533479E-1,-1.6171377E0,-8.8540804E-1,-2.1489603E-2,1.0315429E0,1.338333E-2,-2.8395206E-2,1.3037783E0,1.5917575E-1,1.5673888E0,2.691062E-3,-2.8787786E-2,-1.2471395E-2,3.759303E-3,2.7197216E-2,5.357553E-1,-5.902747E-1,6.518089E-1,2.8638896E-2,2.3699526E-2,-1.1541065E0,-7.976658E-3,2.2917237E-2,-9.195108E-1,2.0701522E-2,-4.045299E-3,2.7367251E-2,7.910406E-1,-1.9816255E-2,-7.5630344E-2,-1.5191733E0,3.782771E-3,-2.9182669E-2,2.7990067E-1,1.2152507E0,-3.297711E-2,-1.299088E0,-1.0258567E0,1.4004931E-2,1.2245961E0,-4.0561575E-3,1.4367106E0,1.991057E-1,-9.28719E-1,1.4092419E0,3.145099E-2,1.354498E-2,2.3382463E-2,-3.2470506E-1,-9.0306073E-1,5.648776E-1,1.2917846E0,7.3274285E-2,-1.3780059E0,-9.928724E-1,-2.1651434E-2,-2.6019162E-3,4.9055237E-3,1.9732619E-2,3.9678765E-3,-6.942282E-3,-3.1405397E-2,-1.3308119E-2,1.5910476E-2,-1.7000439E-2,2.6654214E-2,9.174138E-3,6.9115674E-3,-3.0004656E-2,-1.1824267E-2,-2.7662806E-2,5.4688104E-3,2.9101402E-2,1.2693561E-2,3.076103E-2,-5.6871604E-3,2.3382463E-2,2.3480808E-2,-2.3391949E-2,1.2711514E-2,2.9544566E-2,5.530562E-3,-1.972582E-2,-2.6482278E-2,-6.217661E-3,2.0913303E-2,-4.3005613E-3,2.8620502E-2,9.827852E-3,1.4199133E-2,-2.0310508E-2,-1.6163766E-2,-2.9779086E-2,2.1715688E-2,-2.1607324E-2],"categories":[],"categories_nodes":[],"categories_segments":[],"categories_sizes":[],"default_left":[0,0,0,0,0,0,0,0,0,0,0,0,0,0,0,0,0,0,0,0,0,0,0,0,0,0,0,0,0,0,0,0,0,0,0,0,0,0,0,0,0,0,0,0,0,0,0,0,0,0,0,0,0,0,0,0,0,0,0,0,0,0,0,0,0,0,0,0,0,0,0,0,0,0,0,0,0,0,0,0,0,0,0,0,0,0,0,0,0,0,0,0,0,0,0,0,0,0,0,0,0,0,0,0,0,0,0,0,0,0,0,0,0,0,0,0,0,0,0,0,0,0,0,0,0,0,0,0,0,0,0],"id":12,"left_children":[1,3,5,7,9,11,13,15,17,19,21,23,25,27,29,31,33,35,37,39,41,-1,-1,43,45,47,49,51,53,55,57,59,61,63,65,67,69,71,73,-1,75,-1,-1,77,79,81,-1,-1,-1,-1,-1,83,85,87,-1,-1,89,-1,-1,91,-1,-1,-1,93,-1,95,97,-1,-1,99,101,-1,103,105,-1,107,-1,109,111,113,115,-1,-1,-1,117,119,121,123,125,127,